0,1,2,3,4,5,6,7,8,9,10,11,12,13,14,15,target
-2.1201026,1.0914372,0.15232855,0.40234765,1.9287587,0.49070525,0.92629784,0.07035449,1.2366633,-0.35178897,-0.504185,0.5297478,-1.2874845,0.5528984,-0.41059825,1.1330547,8
-1.970893,1.0291309,0.28175715,0.28400832,1.7288626,0.48830655,0.760537,0.19314194,0.7193114,-0.379418,-0.4605114,0.59320676,-0.82558554,0.3725476,-0.48417532,0.89259106,8
-1.2591609,-0.9548997,-1.3063062,1.0155466,-0.613837,0.8812729,1.6859117,0.7493067,-0.18701251,-0.515674,-0.16097492,0.10871952,-0.24161834,-0.6369585,0.87775576,-0.634496,17
-1.1039315,-1.1150739,-1.4989415,1.5180783,-0.70678794,1.3634399,1.0030338,1.4566523,-0.16074629,-0.48156407,-1.0174204,-0.48430136,0.080942124,-0.4964947,0.44238082,-0.2589751,17
-1.4477557,-0.09458113,-0.7237236,1.2639219,-0.25069743,0.386268,1.6234088,1.1340904,-0.36541736,-0.5886557,0.16864143,0.41240653,-0.8667414,-0.24678083,1.994409,-1.0153786,6
-1.2906392,-1.0579838,-1.3874184,1.150097,-0.64379114,1.0041293,1.7707821,0.55870044,-0.04221281,-0.5573227,-0.08163723,0.069313094,-0.31179634,-0.7158584,1.1841168,-0.84403354,16
-0.7171625,-0.38638756,-0.8318726,1.6923729,-0.38427168,0.5455137,1.4135233,0.6919633,-0.012215236,-0.34024104,-0.82297134,0.58335954,-0.47782275,-0.76596457,-0.3395002,0.16355155,17
-1.3462813,-1.261149,-1.1918737,0.9012501,0.110233985,-0.292655,2.1514144,-0.015019383,-0.39608508,-0.9908137,-1.0935221,-0.3756289,0.7370557,-0.53354144,0.6734297,-1.0863204,16
-1.1675909,-0.6653409,-1.6562728,1.109145,-0.40049443,1.6943921,0.79661554,0.20977208,-0.48109156,-0.62104183,-0.4095699,-0.9454558,-0.7723271,-0.66649145,0.21102695,-0.583774,17
-1.3370137,-1.2828964,-1.4590359,1.0836653,0.33406866,1.5627515,2.4321527,0.36807394,0.008575459,-0.81499505,0.3109703,-0.15928349,-0.27494013,0.01980078,0.4502677,-0.960032,16
-1.7663307,-0.42308918,-0.6556717,0.97458154,-0.22837207,0.3669643,1.2932173,1.3605705,-0.0984238,-0.4303508,0.60346997,0.08813564,-0.24429342,-0.7459246,1.6810519,-0.33760884,14
-1.6597015,-1.010427,-1.3239464,0.4457279,-0.93411225,1.1903846,1.3949145,-0.215423,-0.2499388,-1.212954,-0.5449152,-0.45451516,0.40712965,-0.2995581,0.8781742,-0.2887574,17
-2.0339434,-0.89368886,-1.6550953,0.5607813,-1.416053,0.87187415,1.4230345,0.30296707,-0.33285916,-0.39240953,-0.96617115,0.0036574432,-0.8714917,0.09323731,0.53345186,-0.025730727,17
-1.926176,1.3660458,-1.1323435,0.86139137,0.65131056,-1.6485972,0.0913819,-0.615303,0.08208521,-0.45766222,-1.1523035,-1.3248527,-1.2888935,2.436568,0.4408106,1.0768226,3
-1.6749823,1.0940936,-0.7358021,0.4941092,-0.3211958,-1.0445797,-0.28474796,-0.8692038,-0.22652304,-0.5773414,-1.4034462,-2.521837,-1.2372142,2.325238,0.73187405,1.2074212,3
-2.3323565,1.4942393,-0.8602017,0.82667494,0.8491915,-1.9943699,0.22724678,-0.16264346,0.39770925,-0.33645332,-0.7739685,-0.77843267,-1.1538513,2.3022072,0.86400676,0.74230266,3
-2.307679,0.92649627,-0.6702018,0.8298852,0.65925556,-1.691031,0.37579548,-0.07724527,0.2579678,-0.34906083,-0.66392124,-0.42729178,-1.0014802,2.4559023,0.5285552,0.45780656,3
-2.2257543,1.399501,-0.6205066,0.87288463,0.83838755,-1.8573525,0.48797604,-0.60793346,0.36530837,-0.6823305,-1.2577186,-0.4643063,-1.2761925,2.1505623,0.43482158,0.55592257,3
-1.9680586,1.1536903,-0.485953,0.6819091,0.9971334,-1.3316332,0.2837654,-0.31979156,0.19232856,-0.27809647,-0.45124936,-0.9362964,-1.3259987,2.5414927,0.685579,0.029517006,3
-1.4360998,-0.022002699,-0.6336853,1.2053611,0.67487854,-1.6623646,0.3963209,0.084366634,-0.28438848,-0.7532191,-1.6673396,-0.91143626,-1.4753387,2.5206938,0.37173653,1.3978114,3
-1.3756138,1.3215864,-0.959749,1.4535282,1.3536422,-1.1418744,-0.036238458,-1.3633344,-0.44872415,-0.95837075,-1.4340227,-1.0505964,-1.3956141,2.545366,0.39277482,1.2178559,3
-2.2493403,0.901342,-0.44104528,0.07663214,-0.25333467,1.3916876,0.82736605,-0.5995469,-1.0683852,0.3159695,-0.15796527,-1.405778,-0.33162633,0.3079896,-0.62210417,0.7387386,17
-2.5034485,1.3771929,-0.4573152,0.3647198,-0.12642021,1.4586701,0.71895266,-0.10268841,-1.2825294,-0.31961617,-0.0660549,-1.2229898,-0.4158797,0.5932456,-0.8061558,0.41904742,17
-2.48542,0.7866765,-0.7069207,0.13094646,0.43191096,0.8889849,0.60725284,-0.48573047,-0.8531668,0.19965212,-0.090903625,-1.3483809,-0.41000757,-0.29378265,-1.000834,0.04313596,17
-1.4397106,0.6702641,0.008964383,0.50372976,0.09359738,0.48013803,1.1298767,-1.3118247,-1.0994546,0.31457514,-0.32311514,-0.7020582,-1.2664696,0.19409119,-0.7472012,0.97498024,5
-2.2364984,0.69973445,-0.5293598,0.21699007,0.23725069,1.4973997,0.4582438,-0.009396569,-1.4830196,0.1775212,-0.47158703,-1.6198318,0.0070800195,0.05778857,-0.5668524,0.5578966,17
-2.3903987,1.1572121,-0.47416702,0.1719775,0.24547824,1.2359844,0.7267281,-0.27348915,-1.378871,0.06636215,-0.1815625,-1.3911641,-0.30463293,0.13335823,-0.7440161,0.38459307,17
-2.200925,1.3389769,-0.34997472,0.04464757,-0.14734411,0.958082,0.7683721,-0.16937274,-1.2918146,0.21680881,-0.19945507,-0.8136567,-0.47629198,-0.072392456,-0.4504638,0.30059463,14
-1.2874279,-0.3752423,-0.65238684,-0.059350807,0.19500342,1.4244153,1.2421563,-0.030457867,-0.6799009,0.048430063,-0.67552006,-1.2908899,-0.38944924,-0.5186452,-0.4352906,0.7144884,17
-1.5456572,0.5022034,-0.34549344,0.3052481,-0.08462646,1.112088,1.2080928,-0.73986554,-1.0836351,0.28886005,-0.7279172,-1.3817152,0.09889982,-0.09340264,-0.67686737,0.44409364,17
-2.5797122,1.0251039,-0.058548182,0.10402327,-1.3545115,1.8718026,0.315477,-0.38471258,-0.8865556,0.13529924,-1.2929235,-1.954867,-0.10498419,0.98754436,-0.21843593,1.0685295,17
-2.0858386,0.60831165,-0.72589236,0.31911722,0.22038795,1.490189,0.5859935,0.15842208,-1.2234071,0.018575288,-0.28161454,-1.2891831,-0.17295615,-0.23781042,-0.74923563,0.58916634,17
-2.6305292,-0.14502005,-0.4989483,0.12505239,-0.5252541,2.275293,1.337662,-0.6408766,-0.53151894,0.396264,-0.4096487,-1.1254218,0.2623829,0.6687453,-0.33494225,-0.35802236,17
-1.1797502,0.82490456,-1.0004278,0.19088401,0.0829877,1.3080631,0.5456907,0.10427163,-0.8005616,-0.17915699,-0.49516124,-1.5591143,0.1251163,0.33220348,-0.06934656,0.16005065,17
-1.372352,1.0164206,-0.60825163,0.946643,-0.14366008,1.2921062,1.0836596,-0.67504257,-0.6224833,0.56245154,-0.09383437,-1.0512254,0.3969149,-0.04193787,-0.75813293,0.9972969,17
-2.0689194,1.1345923,-0.72676736,0.43221882,0.19310434,1.5941517,0.54832804,-0.21171995,-1.3950055,0.096742935,-0.11725362,-1.4170258,-0.3087442,0.04632533,-0.47335297,0.3377034,17
-1.9221696,0.80006105,-0.5801671,-0.09797516,0.17365235,0.8861674,1.2438116,-0.9370963,-1.2266618,0.42807364,-0.5966563,-1.2774206,-0.3723713,-0.028325139,-0.5305994,0.42255557,17
-2.6432111,0.999911,-1.0863464,0.4617321,0.30751282,1.0893735,0.56016433,-0.48874035,-0.80198646,0.059501715,0.2583373,-1.555079,-0.4261998,0.18366395,-1.2254013,0.13693444,17
-2.2827537,0.9946876,-0.5474889,0.20496109,0.1401366,1.4080871,0.7415821,-0.40653378,-1.5480852,0.13698943,-0.41357493,-1.2693435,-0.21491694,0.01902836,-0.50539595,0.45938265,17
-1.6429883,0.8749975,-0.8335466,0.22467603,0.27968422,1.4131985,0.88947165,-0.2992518,-1.479257,0.017222568,-0.48231876,-1.2018547,0.020901604,-0.30261746,-0.10860245,0.5074865,17
-1.4794511,-0.31158763,0.41557613,0.20092995,0.5641727,-0.12714747,1.4396582,-1.9471812,2.0917096,-0.28084272,-1.2787597,-2.0486805,-1.512454,-0.17810225,0.5875245,1.5205535,5
-1.1988873,-0.5316196,0.835771,0.5330926,0.8546849,-0.2702113,1.8560895,-2.1108212,1.7591851,0.025578856,-1.2946719,-2.3836906,-1.5208968,-0.38452014,0.7602503,1.9200678,5
-1.1495202,0.54186505,0.82957345,0.37630695,0.78009677,0.6564949,0.9239621,0.117319405,-0.7167773,-1.5230708,0.55858773,-1.374075,-0.044516012,0.003848165,-0.10643051,0.18085314,17
-0.6544955,0.34358233,0.63701695,0.21532811,0.7349122,0.31894127,0.75507885,0.066053145,-0.5887051,-1.3629837,0.29264516,-1.2590564,-0.07550849,-0.058935463,-0.014276722,0.162681,14
-2.6631348,1.2324097,-1.8007517,1.2260268,1.0490257,-1.7848597,-0.0050474238,-0.25595164,-0.118894555,-0.8407503,-0.8905508,0.28492168,-0.75501823,1.3798679,-0.008875788,0.38221824,12
-1.7901858,0.09925454,-0.31416723,1.0168986,0.39982256,-1.6704046,0.77797645,-0.1529188,0.30997044,-1.1953115,-1.4427994,-0.5736037,-1.3931354,2.4123628,0.48798302,0.18288915,3
-2.217008,0.20288138,-0.10837046,0.6677036,0.44098794,-1.8498471,0.52302814,0.26047206,0.23747097,-0.84541595,-1.1486584,-0.81114656,-1.5468289,2.377094,0.8373974,0.16517776,3
-1.8958265,0.35273266,-0.6968779,0.85290563,0.77212554,-2.1239944,0.67909867,0.15445797,0.21494937,-0.83479553,-0.8670684,-0.76842105,-1.4465284,1.9228576,0.6133951,0.15891245,3
-2.598427,1.2396486,-1.1125921,0.7561242,1.1596398,-2.118447,0.3322254,0.5682728,0.5356882,-0.80053246,-0.65384114,-0.15593173,-0.75153023,1.6680447,0.5582086,0.3777389,12
-2.128211,0.32907444,-0.25431156,1.0675805,0.24047929,-1.6949786,0.6033674,0.09659732,0.10544043,-1.0105187,-1.2533594,-0.67334306,-1.3462212,2.6806526,0.4873392,0.44313824,3
-1.3587164,0.5114341,-0.28243688,1.0263994,0.56213194,-0.9618054,0.23753253,0.21865292,0.058874458,-0.49589476,-0.9038841,-0.64031136,-1.1432358,2.623336,0.37208524,0.40082067,3
-2.8812237,1.4914815,-0.012158791,0.5129601,1.4671953,-2.5625226,1.1139579,-0.8131922,0.5540986,-0.17730379,-1.8057235,-0.59838396,-0.8635494,2.191576,0.67710656,0.8751915,3
-1.9557834,1.3211423,0.19259062,1.4877069,0.45179048,-1.2527348,0.26747933,0.22256945,-0.02269038,-0.8162966,-0.8926467,-0.13805692,-1.5654994,2.6728287,0.5137767,0.52329236,3
-2.132192,1.0016761,-0.23483345,0.805234,0.78684425,-2.0140204,0.40139976,-0.09040927,0.25826922,-0.2833217,-0.8956758,-0.7214007,-1.3355148,2.4063845,1.1703707,0.593233,3
-2.2560768,0.9558707,-0.28606802,0.966147,0.6359357,-1.9971142,0.60991657,-0.52378803,0.53543776,-0.629671,-0.93272924,-0.68497777,-1.3723319,2.3844726,0.71237534,0.46023312,3
-2.6520483,0.895094,-0.693616,1.0364513,0.7984114,-1.9214367,0.6305781,0.055944983,0.62102157,-0.43368837,-0.2890259,-0.3280093,-1.2052734,2.486283,0.6749387,0.4856866,9
-1.0420254,0.1581995,0.020328868,0.75671786,0.88417226,-0.55371886,0.34102893,0.21387509,0.3379491,-0.32225174,-0.7063806,-0.39991078,-1.4886323,2.0708623,-0.11018319,0.27704078,3
-1.9789103,1.1816721,-0.63688266,0.9278913,0.8288272,-1.8636812,0.296014,-0.17342803,0.8937126,-0.3529082,-0.41647282,-0.5735299,-0.8439951,2.2248378,1.1782959,0.37847295,3
-2.6289358,1.6389096,-0.4324192,0.28507158,0.7205898,-2.1717827,0.6297763,-0.75831676,0.82702976,-0.4559683,-1.4649447,-1.0029701,-1.0515312,2.1290472,1.0833161,0.6866849,3
-2.8764448,0.24801722,-0.5317238,0.8568402,-0.028014464,-1.3732992,0.7603443,-0.627186,-0.83971095,-0.0005158722,-0.5250891,-0.04207939,-0.26792976,2.7234352,1.0273167,0.39247933,1
-1.4811238,-0.34214348,-0.5758714,0.824572,0.7649724,-1.3235089,0.64976835,-0.13413246,-0.40607435,-0.50401616,-0.27051884,-0.526253,-1.0857877,2.4278882,0.84118885,0.21361129,3
-1.2161878,0.4921047,1.1024907,0.64116377,-1.3166347,0.79491556,0.7493016,0.63578045,0.75651044,-0.27657008,-0.6214209,-1.7860669,-1.1613712,0.2594629,-0.18576482,0.8256792,6
-1.3920354,0.67878336,1.4899403,0.42511603,-0.9413703,1.3988872,0.9549545,1.35108,0.3122882,-0.9064357,-0.62518775,-1.2009667,-1.2332375,0.91035724,0.7350838,-0.3651455,6
-1.4862856,0.6786483,1.1185514,0.93113947,-1.3008783,0.78298604,0.9270069,0.8864812,0.7541074,-0.40478086,-0.53639984,-1.749226,-1.5929751,0.33417404,-0.24286368,1.0257789,14
-1.44091,0.16865504,0.15760602,0.6891534,-1.0610186,0.76576424,1.1221516,0.5710115,0.4387919,0.014420617,-0.26576358,-1.0584599,-0.30638182,1.0966843,-0.90400696,0.6592943,17
-0.88825405,-0.023542406,1.1605698,0.42867365,-0.05060915,0.9273411,0.50442284,0.34372142,-0.048903227,0.2176104,-0.77675885,-1.4173493,-0.6960427,-0.86238086,-0.17106414,0.6943647,0
-0.89343643,0.24842018,0.8163518,1.3200729,-1.0021405,0.32755983,1.3738155,0.69634897,0.7440559,0.008740532,-0.16869168,-1.1387113,-0.31031838,0.6929002,0.19514433,1.2317972,0
-2.158098,1.4893181,0.59184647,0.75626415,-1.5388731,0.12581708,1.1267227,1.0340041,0.6119423,-0.30678052,0.02003319,-2.3863971,-1.2499985,0.17520633,0.17031202,1.0527604,8
-1.45372,0.43964922,1.3351607,0.7477875,-1.3129035,0.9849898,0.8207862,0.5796382,0.9857849,-0.1844712,-0.7161057,-1.9242287,-1.2008092,0.3203702,-0.06714767,0.80270493,6
-0.95807785,0.28317901,0.84887797,0.30736747,-0.514939,0.4652844,0.3181736,0.1093668,0.37353957,-0.3335759,-0.8294544,-2.3204803,-0.8147331,-1.0180559,0.3146055,1.220278,5
-0.28872886,0.40249163,0.51472837,1.5598744,0.23710768,-0.31010392,1.416503,0.46172422,-0.26983625,-0.98638463,0.54349595,-2.2878823,-1.4643188,-0.35810354,3.3012109,1.1873891,0
-0.48299664,0.6154242,1.2430788,1.8074839,0.31270337,-0.17993999,1.3178947,0.77522206,-0.26694682,-0.23871651,0.8064044,-2.1638832,-1.519637,-0.4887768,3.1301641,0.60438985,6
-1.2752818,0.7355155,0.37290883,0.9211563,0.6914893,-0.5623976,0.06479369,0.71881145,-0.9996886,-1.9459028,-1.0087917,-1.4958829,-0.7761383,1.9947624,-0.12704647,1.3814517,3
-1.4607928,0.5812063,1.0502546,1.14814,0.51580524,-0.49958298,0.2636936,0.7641603,-0.9437418,-1.9545486,-1.2259259,-1.9124607,-0.5638809,2.3749113,0.09730397,1.5882858,3
-0.7516612,0.3561354,0.310293,1.0241741,1.0294126,-0.5947958,0.34956744,0.017747475,-0.787962,-1.5968126,-1.1250638,-0.42158228,-0.56399274,2.1610916,0.69124275,0.8707486,3
-1.5744137,0.5937373,0.1734015,0.90050495,0.33755782,-0.92055684,0.36396044,0.8916359,-0.3263573,-1.647497,-0.9825563,-1.4695009,-1.1071509,2.686903,0.009258691,0.8740809,3
-1.5731753,0.89031875,0.7817919,1.0633711,0.7045664,-0.43184966,0.113352746,0.5783651,-1.0688844,-1.8497971,-1.0996252,-1.4685425,-0.5660355,2.2316546,0.07185251,1.5841069,3
-1.6811804,1.3495367,0.40927598,1.1985254,0.39644352,-0.9198524,-0.030850222,0.40366873,-1.19551,-1.7067794,-1.0741305,-1.4242394,-0.7460106,0.966364,-1.0719688,1.3698752,3
-1.43167,0.5037149,0.45418817,0.8800672,1.0234053,-0.5620831,0.19345498,0.50310117,-1.0086942,-2.0816915,-1.1795632,-0.9578657,-0.62307775,2.4545765,0.5587528,1.3719318,3
-0.471809,0.58353275,0.6962111,0.8068195,0.55642223,-0.16365218,-0.08540481,0.3712814,-0.72814673,-1.6650373,-0.64064413,-1.7548873,-0.39337757,0.34480625,-0.2640766,0.7152075,3
-1.0759771,0.3322195,0.35331255,0.91874427,0.730888,-0.8196607,0.042554688,0.57781225,-0.49754912,-1.8431151,-1.6969981,-0.8952728,-0.55819905,2.011868,0.46758252,1.5410757,3
-0.7371812,0.028163215,1.2999159,0.9388595,0.87538105,0.23815075,0.21375869,1.3550673,-0.10649212,1.0024003,-1.6185095,-1.4087342,0.38914293,-0.8208169,0.01170843,-0.11586014,17
-0.6336823,0.02302216,1.1440641,0.677655,0.8125688,0.094588175,0.08741279,1.1826494,-0.17192708,0.8229343,-1.3471844,-1.1024222,0.079163596,-0.69239396,-0.18635401,0.02327328,5
-1.6304677,0.5046372,1.5584714,1.1638356,0.7766649,-1.2523823,0.5015115,1.4143198,1.0182824,0.81614715,-0.2250975,-0.7357183,0.078669086,0.39962736,0.9242697,2.0357807,0
-1.4758142,0.30965257,1.0728017,1.0163261,1.0992105,-0.6881081,0.6707519,1.1181557,1.9639578,-0.011911279,-0.5310089,0.02671596,-0.36949864,-0.11791563,0.40756348,2.0285435,0
-1.5940335,0.816613,0.96113604,0.834551,0.8456478,-1.2612809,1.1165897,1.4565006,1.6086417,0.45787993,-0.9050752,-0.81343526,0.28879768,0.026328607,0.8223644,2.4082286,0
-0.78192466,0.4370073,0.8721034,1.2826525,-0.043632064,-0.27499163,0.5101301,1.3275534,0.5423071,0.5612105,-0.16029581,-0.76963705,0.116169974,0.9194147,0.7985496,1.6100829,0
-1.8682823,0.72464556,0.93006897,1.0449077,0.8407087,-1.5806056,1.0884025,0.57573324,-0.3352136,1.5053128,0.15940812,-1.2548633,0.49918893,-0.22792909,0.74212736,0.998257,0
-1.1075606,0.22511521,1.0694423,1.3078929,-0.1700565,-0.36394072,1.1754844,1.0872823,0.6278484,0.3559617,-0.12390452,-0.5997532,0.117986344,0.8189872,0.6967916,1.7377976,0
-1.7996317,-0.052753992,-0.70754486,-0.25733086,0.50009614,1.3516432,1.2503012,-0.6270352,-0.83702797,-1.3699166,-1.3830997,-0.6821879,0.609491,0.1699172,0.32163373,-0.464551,17
-1.1399981,-0.14102267,-0.32553264,0.07687162,0.31853992,1.364802,1.0402579,-0.2579058,-0.88894176,-1.3090345,-1.1153058,-0.8036419,0.45264423,0.13633865,0.15765557,-0.2328058,17
-1.9996866,0.072624184,-0.92866707,-0.33938226,0.18459754,1.2041477,1.1041465,-0.48104352,-0.22234792,-1.1064961,-1.2568607,-0.5975987,0.5120626,0.049967494,0.05234358,-0.5910086,17
-1.2581855,0.008203839,-0.5320717,1.3352597,1.5855465,-0.960885,-0.71422184,-0.10910165,-0.4790213,0.94913936,-0.8336998,-1.5849607,-0.09676603,0.15071835,0.53212166,-0.33299854,15
-1.8070742,0.286854,-0.5809303,0.9050246,1.7494618,-0.8260796,-0.90975386,-0.4472961,-0.5445637,0.6901696,-1.0893399,-1.4225739,-0.38137797,0.26326415,1.0505426,-1.0567943,15
-1.0881753,-0.38429144,0.13601835,1.02874,2.185717,-0.69480664,-0.6753603,-0.3974754,-0.14080736,0.99691325,-1.0902855,-1.5264685,-0.20659977,0.18921615,0.6973154,-0.0126410285,15
-1.1155803,-0.25639817,-0.52680314,1.6336832,1.9540434,-0.95909154,-0.6120106,-0.107789814,-0.2878354,0.672137,-0.73251057,-1.6015527,0.33020008,0.2875004,0.41686344,-0.14513548,15
-1.3132918,-0.14318928,-0.9829937,1.9109279,1.5763165,-0.9253589,-0.74046534,0.02520461,-0.60269094,1.3959352,-0.81680226,-1.583629,0.006778867,0.31663004,0.70131385,-0.11723137,15
-1.0448134,-0.08892372,-0.38078487,1.3974179,1.8510025,-1.2018719,-0.40510544,-0.21805178,-0.56875056,0.95321804,-0.97392964,-1.7280585,-0.34099594,0.06965302,0.28902295,-0.12028216,15
-1.2753628,0.5101457,0.040676165,1.3322276,1.3394567,-0.8493944,-0.66289145,-0.2007827,0.24057506,0.589141,-0.6639427,-1.4872575,0.292576,0.025451895,0.42336944,-0.6458977,15
-1.3277512,-0.1684533,-0.19164757,1.4576305,1.6794188,-0.59223324,-0.78378576,0.4739885,-0.5617018,0.7934398,-0.6297055,-0.9483332,0.32655114,0.19040503,0.67756176,-0.33134225,15
-1.3256938,0.23031645,-0.3344669,1.5150137,1.4692261,-0.87184274,-0.6746812,0.0047973846,-0.19104227,0.809328,-0.8501753,-1.4197394,0.2017096,-0.12332297,0.6650466,-0.6650766,15
-1.2488173,-0.21358572,-0.2482319,1.1701322,1.3698885,-0.6836644,-0.62044954,-0.028562076,-0.2656769,0.80233914,-0.83433855,-1.3204077,0.14301565,0.1827678,0.65206003,-0.6628623,15
-1.4065486,0.09579565,0.1937048,1.0321937,1.4985077,-1.4754759,-0.7226419,0.10177312,-0.43302718,0.95705825,-0.9592923,-1.2034364,-0.31856722,0.39829376,0.8943131,0.08846602,15
-1.2129683,0.44244492,-0.91885257,1.563637,1.5266908,-0.3814902,-0.58758545,0.11058539,-0.55818176,1.1422784,-0.72270393,-1.3000412,0.42537317,-0.18158793,0.5028763,-0.5308856,15
-1.5636504,0.034090877,-0.30569,1.105168,1.6444025,-0.5848901,-0.9365272,-0.32522815,-0.30823696,0.89154047,-0.8815375,-1.6166708,-0.37466007,-0.014992207,0.77209216,-0.8235865,15
-1.52104,-0.5645786,-0.47440583,1.4599831,1.4591227,-0.95611584,-0.67082506,0.19395027,-0.60226285,0.7310129,-0.7550242,-0.85109043,0.33232734,0.16511376,0.9097404,-0.57479304,15
-1.3601483,0.12615365,-0.09528764,1.0222771,1.7441752,-1.000411,-0.6840771,-0.001758263,-0.15607956,0.59773195,-1.200449,-1.2181807,-0.0115574235,-0.23794785,0.7833276,-0.6022386,15
-1.2843051,-0.16085516,-0.4830616,1.2364142,1.6746094,-0.87890595,-0.5039476,0.040868003,-0.12518407,0.8287517,-0.71468425,-1.5688816,0.23067082,0.25520802,0.69224924,-0.5737813,15
-1.1296868,-0.18369855,-0.03503253,1.2387946,1.8860472,-0.62593323,-0.61506796,-0.29699686,0.15245943,1.038424,-0.6976959,-1.120606,-0.34443587,-0.26410553,0.7908334,-0.36529946,15
-1.2379981,-0.0036956924,-0.27826214,1.7013627,1.6935917,-0.7995168,-0.69715816,-0.22121973,-0.638441,1.268184,-0.85604614,-1.8080308,-0.2936129,0.4755889,0.4028944,-0.32630423,15
-1.1249232,0.3867198,-1.2454253,2.0477042,1.092828,-0.64764494,-0.83949983,0.19650865,-0.64437044,1.0939436,-0.7200208,-0.8802794,0.24795358,0.46635363,1.0291595,-0.50095123,15
-1.139757,-0.32673874,-0.5325942,1.6826103,1.827769,-0.9508528,-0.55091244,-0.10373226,-0.18352008,0.67274606,-0.9981018,-1.5130208,0.47021815,0.30847016,0.3964481,-0.38291904,15
-1.2939519,-0.23128146,-0.41147488,1.7428458,1.5710323,-0.7163516,-1.0216645,-0.37160885,-0.18311347,0.97746724,-1.2320197,-1.9365503,0.41431126,0.10393559,0.48446897,-0.10722396,15
-1.4796262,0.10009234,-0.40154043,1.0677493,1.8821652,-1.0364605,-0.708231,-0.056441184,-0.21192428,0.4951501,-1.1211356,-1.182154,0.024119075,-0.16536357,0.8039684,-0.7041415,15
-1.419628,0.02620288,-0.7520349,1.739372,1.6043869,-0.9220079,-0.73536783,-0.33261767,-0.5439217,1.1430885,-0.8507738,-1.8171526,-0.2567281,-0.041304473,0.2870676,-0.3492316,15
-1.2809545,-0.35217038,-0.36706212,1.227292,1.3120918,-0.7704393,-0.57967854,0.2698359,-0.16256677,0.6837328,-0.8101568,-1.0489515,0.48499984,0.30467215,0.7141308,-0.62408423,15
-1.1387508,-0.26203093,-0.39385247,1.3615633,1.8252138,-0.75161207,-0.61098295,-0.24471638,-0.09528164,0.85428566,-1.0104927,-1.2895285,-0.0826875,0.12624177,0.5376007,-0.5148811,15
-0.9213105,-0.2899979,0.0061065354,1.2265605,1.9029697,-0.71613,-0.5002487,0.1562787,-0.60440373,0.46670574,-0.172565,-2.0733113,-0.08777803,-0.033049252,0.1648149,-0.17918205,15
-1.5865531,0.04989803,-0.48021936,1.4586735,1.1614068,-0.97209597,-0.5843935,0.31919026,-0.20818742,0.92270666,-0.55835885,-1.0087361,0.42273784,-0.41579825,0.7523713,-0.7062485,14
-0.9808966,-0.7504163,-0.24523653,1.4399971,1.4063568,-0.10693125,-0.39130306,0.11734628,-1.0495907,0.84814113,-0.55520993,-1.3854783,0.51105136,0.46050957,0.4001391,-0.55253714,15
-1.2292601,-0.3380684,-0.37880048,1.7342901,1.6032118,-0.8676054,-0.7030416,-0.095812865,-0.27094066,0.77186674,-0.94590145,-1.5083287,0.2302478,0.39904281,0.23753971,-0.42207822,15
-1.1507293,-0.43527377,-0.43155172,1.6179271,1.7886778,-0.734193,-0.5319509,0.31268704,-0.3682176,0.7705652,-0.98680925,-1.5717326,0.4043445,0.37774283,0.494452,-0.5157391,15
-1.2015989,1.1554934,-1.1597502,1.265433,1.7040253,1.7772734,0.04846135,-1.29381,-0.7983855,-0.42672682,-1.728932,-0.9614967,0.26201624,-0.9302221,-0.25153357,0.83993065,17
-1.0890815,1.0776347,-1.0930994,1.0759164,1.4329778,1.7609098,0.121483564,-1.0870826,-0.6267483,-0.13894776,-1.3559272,-1.2364589,-0.0054725846,-0.86482716,-0.35856578,0.36763057,17
-1.1913308,0.9200638,-1.1038386,1.028884,1.2332071,1.5400296,0.2643652,-0.558245,-1.2597222,-0.7013983,-1.5242279,-0.90590096,0.25536793,-0.8105724,-0.34511927,0.7170947,17
-1.0383276,0.78098154,-0.9996568,1.2063384,1.5955704,1.6968085,0.13821909,-1.1779209,-1.1945071,-0.27736285,-1.6262345,-1.2902863,0.1795432,-0.7898678,-0.23533434,0.5865882,17
-1.5856023,0.8138293,-1.3072935,1.261766,1.2051227,1.995488,-0.08785404,-1.3991084,-0.25059825,-0.45577464,-1.1685902,-1.3448789,0.6700812,-0.6468126,-0.60953546,0.87030756,17
-1.7367122,-0.022624398,-0.37331027,0.18164805,0.26818052,2.160219,1.0751458,-0.105235204,-0.5217026,-1.0061083,-1.0465207,-0.48132274,0.5200058,0.45219278,-0.1614634,-0.2589491,17
-1.0537733,0.17911972,-1.118964,0.62251866,0.24828182,1.2166802,0.3022105,-0.119115755,-0.9005129,-0.88178456,-0.95445544,-0.9640883,-0.016997874,0.022710998,-0.39661485,0.12845133,17
-1.7957445,0.17547257,0.31445473,0.1706002,-0.06888167,1.9136312,1.3135273,0.5676778,-0.51387894,-1.1950804,-1.1799306,-0.6179284,0.5124005,0.3641586,-0.46759668,0.20964056,17
-1.8370634,-0.28817353,-0.6260374,0.43521166,0.15682063,2.455124,1.382673,-0.2268564,0.08126315,-1.277478,-0.44873482,-0.19231129,-0.012855392,0.6736364,0.07882814,-0.73413575,17
-2.3322785,-0.25212163,-0.2843021,-0.3948448,0.23216414,1.7832804,1.3402107,-0.2048586,-0.15711257,-0.6317635,-1.0616666,-0.58336765,0.53831285,0.095413186,0.06492744,-0.8088128,17
-1.3180081,0.60405993,0.17985737,1.3604985,0.7590851,0.6526362,-1.0825065,-0.5862883,0.7159807,0.0038786938,-0.9861781,-0.18358955,0.010118789,1.1615568,1.2440934,-0.12311079,10
-1.1488692,-0.067736395,0.22483195,1.2668825,0.87539566,0.64829785,-0.49183145,-1.0292363,1.0598546,0.56505924,-1.1567783,-0.10121545,0.101032615,1.2183534,1.3520894,-0.11405819,10
-1.2949125,0.7706447,0.5868999,1.2900081,0.7733467,0.51155335,-1.3468047,-0.4614432,0.35661057,-0.14725085,-0.3779361,-0.8885476,-0.33080646,1.0004642,1.5876385,0.034267627,10
-1.3658533,0.6652885,0.2965276,1.9265655,0.37357995,0.6434725,-1.0188339,-1.1201175,0.8160197,0.34786305,-0.5716386,-0.8883677,-0.09277589,0.84760106,0.8369764,-0.58952945,10
-0.9841105,0.5572193,-0.47170958,1.4784185,0.79289156,0.13141939,-0.8987328,-0.70848966,1.3892181,-0.07232641,-0.78115594,-0.7464421,-0.32652232,0.40066758,0.92626387,-0.38259548,10
-1.3072933,0.3401436,0.1506728,0.8525258,0.91140765,1.0798666,-0.95586216,0.28092924,0.8948585,0.340676,-0.25195798,-0.40802276,0.19799654,0.9559101,1.3187884,0.47418025,10
-0.38334775,0.40199664,-0.20445837,1.7678398,0.68693197,0.29254064,-0.5060245,-0.40957946,1.2212001,-0.23704103,-0.6725135,-0.36165142,-0.002642674,0.591279,1.2302865,-0.14556453,10
-1.4581618,-0.25859374,0.21690568,1.0200123,1.0007902,0.29417747,-0.4749646,-0.43083444,1.2409794,0.51875424,-0.8902283,-0.19050656,0.56044704,0.82504725,1.4397624,-0.514693,10
-1.517722,0.66126007,0.53556204,1.0137607,1.0551647,0.35116562,-1.1613247,-0.5791834,0.84164774,0.009125927,-0.4905964,-0.7256461,-0.2284213,1.2691833,1.2251296,0.2346605,10
-1.4260038,0.51136774,0.124039166,1.8874393,0.59750926,0.4201909,-1.3789889,-0.5705504,0.5139349,-0.051461976,-0.24742027,-0.70729876,0.07261285,0.35127813,0.99572295,-0.4206865,10
-0.69274265,0.5803916,-0.8281536,1.3115016,0.44802552,0.096628524,-0.8973126,-0.19863847,0.15092392,-0.67548764,-1.1316496,-0.3203748,0.48203447,1.765328,1.2636511,0.5875451,10
-1.4516058,0.7409692,0.25494856,1.1471176,0.6345074,0.72620946,-1.0462753,-0.8528681,0.942408,0.41735762,-0.32666495,-0.8781182,-0.28392988,0.9566529,1.4651872,0.072328016,10
-1.3428115,0.29475296,0.37943995,1.9944612,-0.0044010496,0.80964375,-1.2218742,-0.58252454,0.81894344,-0.40434214,-0.8269847,-0.3139522,-0.13951738,0.598402,0.65679026,-0.3921103,10
-1.3943701,0.36037436,0.31448966,1.4324645,0.7100573,0.31160924,-1.0158726,-0.6648815,1.2375703,0.21211913,-0.46036208,-0.52927697,-0.17877764,0.73809135,1.2574067,-0.003315666,10
-1.731415,0.38760817,0.38308904,1.129196,1.2011676,0.21827948,-0.9437158,-1.0791352,0.6607871,0.73781574,-1.1630887,0.14382069,-0.7942262,1.4264015,1.5623266,0.3541496,10
-0.9892343,0.16366893,-0.29813376,0.96206635,0.8646846,0.044694573,-1.0029022,-0.27451265,1.1525178,-0.37817132,-0.8846675,-0.58224905,-0.2649387,0.5024452,1.6087143,-0.0029140508,10
-1.6885691,0.14434657,0.55296016,1.2713821,0.7354065,0.35858762,-1.1742189,-0.65707356,1.1593444,0.03332061,-0.43065703,-0.97882396,0.079956874,0.9547796,1.1998315,-0.10551994,10
-1.6667602,0.56371844,0.27259478,1.4373494,0.6304376,0.8686534,-1.2569101,-0.69806534,0.4118311,-0.07770956,-1.1183587,0.13983527,-0.1737379,1.1844509,1.518234,-0.016332598,0
-1.6501791,0.56508255,0.51444376,1.75593,0.32996693,0.79511666,-1.2511551,-1.0786283,0.8179402,-0.041841235,-0.48842794,-0.8689216,0.1812209,0.7161498,1.0451027,-0.23621903,10
-1.0698785,0.093961455,-0.00080315454,2.0517895,0.89938706,-0.37751013,-1.1277611,-0.45539182,0.6035661,-0.07721225,-0.7890037,-0.2145207,-0.57516474,1.0982933,1.936193,-0.19709554,10
-1.6536468,-0.10652337,-0.13214651,0.5900244,1.0557739,0.50776947,-1.2573247,-0.20472294,0.874692,0.1350742,-1.1205812,-0.09709877,-0.32538134,0.13695033,0.9807148,-0.044441905,10
-1.3607973,0.23166385,-0.02501021,1.189793,0.40002152,0.66284156,-1.1809108,-0.6030368,0.6837092,0.49118105,-1.4726573,0.27426812,-0.53203374,0.15078393,0.6116797,0.19654489,10
-1.4077467,0.39229536,0.70151865,0.8809151,1.215421,0.3773871,-1.12443,-0.39977846,1.0863179,-0.00078835717,-0.5443746,-0.92305243,-0.13397257,0.9545347,1.4703757,0.32393205,10
-1.1918938,0.0838906,-0.6857881,1.9893627,0.3827779,0.9597481,-1.326046,-0.10341093,0.5743121,-0.31759858,-0.5622007,-0.24434185,-0.03802212,0.5742657,1.7308106,-0.31911695,10
-1.3067054,0.1417397,-0.22013581,0.6182,1.0585426,0.8787859,-1.1378657,-0.08390867,0.50070757,0.25556895,-1.4915789,-0.009350827,-0.9483839,0.7424684,0.63573056,-0.13655542,10
-1.179941,0.38323554,0.18950835,1.865714,0.18863772,0.60772085,-1.2577688,-0.55909675,0.85302186,0.071247905,-0.6482922,-0.7428668,-0.10837569,0.4979231,1.2931422,-0.24173199,10
-1.5931358,0.8845382,0.49520496,2.060643,0.19998224,0.5282717,-1.2103091,-0.7738049,0.6794181,-0.08221885,-0.40527534,-0.54404527,0.251065,0.4158293,0.91898495,-0.36459085,10
-1.4854499,0.3446869,0.6988672,0.91598535,1.0737859,0.5504384,-0.90971684,-0.24038215,1.0222802,-0.14588071,-0.31234142,-0.37426192,0.12944318,0.9577954,0.828555,-0.031125994,10
-1.4105563,0.4127821,-0.40357363,1.9658482,0.48198012,0.9882255,-1.5322169,-0.42305115,0.663302,-0.0339796,-0.6414052,-0.48978862,-0.26153705,0.9046231,1.1190416,0.007857152,10
-1.4614722,0.7676757,0.41133374,1.5660912,0.79805213,0.4449799,-1.0340697,-0.603714,0.60023546,-0.034701414,-1.081818,-0.1308858,0.19732687,1.4733032,1.2121601,-0.06578484,10
-0.24561219,0.57730204,0.4457879,1.4129245,0.8162365,0.45130956,-0.28597897,0.24301323,0.6825255,-0.1885036,-1.7697557,0.086326525,0.5621657,0.6222655,1.6363001,-0.19899863,10
-1.4219013,0.0883088,0.3303684,0.92632735,1.2450483,0.24790241,-0.93529433,-0.66633046,1.0306828,-0.2869169,-0.52326643,-0.53739524,-0.1410015,1.2497128,1.4698772,-0.08079491,10
-0.8313631,-0.31884718,-0.10873466,1.6255763,0.9479999,0.07973176,-0.8477234,-1.0146536,0.2396448,-0.12627707,-1.1938319,-0.67356855,0.16014059,1.5755316,0.8582268,-0.56882834,10
-1.128097,0.22189571,0.36203048,0.82073015,1.3004658,1.1675692,-0.554642,-0.438776,0.8614294,-0.27261496,-0.25855923,-0.46745867,0.39804783,1.256372,0.76623046,-0.30274713,10
-0.771588,0.13911034,-0.28090626,1.7305993,0.37499422,0.23298618,-0.6682722,-0.051992938,0.8949933,-0.51106554,-0.5600482,0.067969374,0.118442714,0.6489273,1.0580202,-0.36856967,10
-0.2944611,0.24315761,0.22322594,1.6547376,0.5121524,0.3310714,1.6834676,0.09063732,0.007747039,0.4633709,0.4320895,-0.59228647,0.116043285,0.62157893,0.66461927,1.2878426,0
-0.48153606,0.19694793,0.40105474,1.5915196,0.30161723,0.23905489,1.6128244,0.04397052,-0.07408489,0.6850479,0.2525213,-0.66304046,0.17408834,0.6533626,0.5604168,1.3553562,0
-0.30563182,0.16189261,0.43306923,1.5366843,0.6326448,0.24725099,1.9998362,-0.0057824296,-0.2944115,0.67826825,0.30726448,-0.8919108,0.09684059,0.6314052,0.84185135,1.37919,0
-0.6331472,0.12120072,0.37650737,1.4807874,-0.24516128,-0.031293213,1.2258909,0.46527904,0.23947327,0.32696962,0.41610292,-0.53221565,-0.11898945,0.56288356,0.33341122,0.7405262,0
-0.65061563,0.1997413,0.35216576,1.527766,0.3671876,0.34364247,1.6535394,0.2623876,0.2593276,0.6867396,0.13032271,-0.22177738,0.37000024,0.072382264,0.4832751,1.2966989,0
-0.1563996,-0.013101232,0.2749562,1.566383,0.46706232,0.31819087,1.6955549,0.095803596,0.1557626,0.67708737,-0.09143161,-0.61549413,0.17680556,0.41507939,0.5789088,1.2528183,0
-0.33177498,0.28592813,0.25211337,1.8291504,0.42249942,0.38395175,1.6041085,0.41471398,0.06881089,0.5892705,0.5943209,-0.7481131,-0.10182017,0.6583346,0.7021213,1.1748313,0
-0.30167598,0.4128122,0.3491821,1.4939435,0.37343472,0.015082978,1.8806789,-0.27278778,-0.13835385,0.56470996,0.09521118,-0.91694194,0.12291276,0.4730702,0.59474003,1.2186806,0
-1.2440896,-0.66502815,-1.9138135,0.57000214,0.26749474,1.3818321,0.78335255,-0.21781968,-0.28118032,-0.27657428,-0.88314116,-0.32425925,-0.76865524,0.089650065,-0.122988135,0.017498072,17
-1.725699,-1.0415597,-1.9459176,0.24142244,0.25610387,1.8998995,0.8379071,-0.051125485,0.51449573,-1.2219733,-1.6451832,-0.78996223,-0.7112506,-0.29697332,0.36056632,-0.5272159,17
-1.5899129,-0.9215397,-1.6095822,0.34128308,0.2664481,0.7093517,0.47559616,0.38519317,-0.8584982,0.03843405,-0.8988804,0.08236788,-1.0002931,0.6133976,0.09722141,0.119357355,17
-0.8088667,-0.2738576,-1.4268566,0.47290337,0.7182214,0.9915422,-0.13864149,-0.44520816,-0.66606766,-0.24330819,-1.437529,-0.5641492,-1.0433382,0.41262624,0.23734793,-0.33716002,17
-1.3901682,-0.6867598,-1.3618846,1.1849588,-0.021244954,2.1442862,1.1932118,-0.5213345,-0.21713313,-0.6486046,-0.32222864,0.5494027,-0.52089995,0.54104775,-0.13799217,0.2768875,17
-0.91974777,0.17990844,-1.533389,1.1020606,0.059369978,1.4472384,1.197367,-0.78499824,-0.11349746,-0.68360054,-1.2703755,-0.07000054,-0.7284617,0.7283745,-0.57815814,-0.20548166,17
-1.481398,-0.896858,-1.51696,0.94057333,0.4972857,1.3425164,0.29362395,0.09074259,-0.76118267,-0.40317854,-1.5252107,-0.00332527,-0.34624338,0.19084844,-0.48958704,0.004401595,17
-1.4109238,-0.6870941,-1.7306541,0.09864824,0.976522,0.6235128,-0.47682497,-0.3009156,-0.47943017,0.05097142,-1.2187085,-0.8828478,-0.9963404,0.0121869305,0.49578223,-0.47406274,17
-1.2653419,0.37647656,-1.5416274,0.38445213,0.5181901,0.76737684,0.7342129,-0.67924917,-1.2353142,0.0026859287,-0.6922759,-0.32240817,-0.2540163,-0.2719837,-0.13119927,0.819687,17
-0.93709165,0.11244124,-1.1562694,-0.025319835,0.34087324,1.0367446,1.352128,-0.1272506,-0.5676726,-0.40305433,-0.826546,-1.0448178,-0.29878703,0.34876156,-0.34806946,0.6482023,17
-1.5836494,-0.7704269,-1.7979467,1.4003115,0.33502457,1.0269998,0.8299616,-0.5303259,-0.37499115,-0.63259286,-0.27593246,0.20327248,-1.5318414,-0.7455722,-0.27801248,-0.5057713,17
-1.2384909,-0.50595486,-1.6428765,0.36272344,-0.19042698,1.7324679,0.70855874,0.6442156,-0.64626974,-0.37650922,-1.4539353,-1.13888,0.124957405,-0.16475303,0.5603355,-0.35703504,17
-1.3290694,-0.44371334,-1.3403507,0.11541564,0.27536294,0.43961975,0.95643383,-0.33680904,-0.12949179,-0.87226814,-1.1892847,0.39101428,-0.6523543,-0.40954667,-0.031283226,0.30359694,17
-1.2901695,-0.9468946,-1.4185777,0.5653224,-0.3009473,1.5085858,1.0735577,-0.50360215,-0.9428761,-0.4110216,-0.5682165,-0.52530336,-0.39620656,-0.19562665,0.42879894,-0.14464265,17
-1.4836175,-0.6051194,-1.2949731,0.5191778,0.1862429,0.66695565,0.37730178,0.1662333,-1.0688918,-0.21772335,-1.7838672,0.23422976,-0.8810906,0.09120673,0.04402782,0.045426644,17
-1.1600591,-0.15102041,-1.8295193,0.67273927,0.22670166,0.7307882,1.1920456,0.03852077,-0.86456484,-0.30273956,-0.99139345,-0.54324734,-0.6912909,0.54330575,-0.5650975,-0.019694773,17
-1.9402629,-0.98822546,-2.1033287,0.70424545,-0.13956052,1.8438294,0.88269734,0.6661318,-0.58218014,0.17110135,-0.88953984,-0.5305893,-0.27811563,-0.24440087,-0.04282172,0.18494491,17
-2.0861096,-0.73935735,-1.3836001,0.20467669,0.26861346,1.1226357,0.81800216,0.3412966,-0.96671444,-0.8901965,-0.43664396,-0.7385101,-0.6346354,-0.2166169,-0.47883394,-0.076629296,17
-1.7657173,-1.1165184,-1.7651517,0.2579864,-0.005919862,1.1095865,1.3316785,0.18476106,-1.005799,-0.5859593,-1.2389224,-0.30251732,-0.51472783,0.3191908,0.13070399,0.118524075,17
-0.8695308,-0.029734675,-0.80228317,0.48669255,0.38783348,1.2873284,1.0716015,-0.41430765,-0.47463813,-0.32066756,-1.1228397,-0.4668818,-0.47020766,0.5010022,-0.50778943,-0.52064687,17
-0.29067802,-0.57125103,-1.9780324,1.2741696,-0.578728,0.7163344,1.1367782,0.21835345,-0.40417767,-0.9561138,-1.4222816,-0.7637166,-0.41157994,-0.27740556,0.43676418,0.5775815,17
-1.9186101,-0.4099841,-2.2364469,0.8308177,0.030944739,1.1241275,0.9331984,0.5816724,-0.25163963,-0.62327915,-0.2526082,-0.57273257,-0.64597845,0.50887656,-0.836335,0.12033107,17
-1.3399136,-1.1896527,-2.0164285,1.3220284,-0.6581491,1.7628084,0.79531825,0.42213404,-0.24373652,-0.027170716,-1.6578223,-0.86451983,-0.010687404,-0.53491396,0.14370917,0.16447298,17
-1.2430172,-0.4882883,-2.167833,1.2951704,0.2775103,1.3977194,0.6384742,0.54413724,-0.36000675,-0.41408175,-0.9754858,0.21255042,0.028251171,-0.7086708,0.14327139,0.33158553,17
-2.8374643,-0.11296206,-0.36151522,2.28419,2.8596008,0.53459394,-1.9994117,-1.0756125,0.5566793,0.05791841,1.2717949,-2.4488683,-0.4197958,0.50010353,0.94257265,2.138195,10
-2.9449039,0.0628181,-0.14060241,2.1546028,2.6494715,0.7212549,-2.0639005,-1.0099193,0.39142925,0.3443109,1.223614,-2.2593102,-0.9422257,0.45161265,0.50652695,1.6068401,10
-2.8534806,0.15907305,-1.2919554,1.8189757,2.6744034,0.47874287,-1.5762631,-1.0044783,0.70179427,-0.13300732,1.1219529,-2.4947972,-0.15625374,1.2504423,0.8140327,2.4225442,10
-2.5245903,-0.12538436,-0.13703284,2.052303,2.5867977,0.53899324,-1.865912,-1.150372,0.6455884,0.4827798,0.93980116,-1.9768542,-0.8138316,0.05157882,0.65078056,1.0076857,10
-1.7184457,-0.02649561,-0.35239694,1.5124408,1.8958868,0.4662402,-1.6671032,-0.72288764,0.28826436,-0.6067897,0.27869037,-1.9047446,0.22825667,0.9593006,0.784827,2.2431042,10
-1.9543213,1.1993252,-0.7532981,0.71859676,-0.09700449,1.4497682,0.7147122,0.9945713,-0.5544342,-0.102203116,0.63065,0.07923371,0.5552751,-0.62163293,0.64975405,0.5111919,14
-2.4463456,1.2205247,-0.5226704,0.6848881,0.10280487,1.495499,1.1662891,1.7346642,-0.5998952,0.2304867,0.8762927,0.022158572,0.5600771,0.06543342,1.5653061,0.12088654,14
-1.755138,0.9041196,-0.2713876,0.65659595,0.20785612,0.13555135,0.8420579,0.26359016,0.32579666,0.39309484,0.7703922,-0.015955277,-0.21190323,-1.1820408,1.2320576,0.6896205,14
-0.8309568,1.3877456,-0.9334144,1.1231523,0.14135955,1.8674952,1.1847215,0.59472984,-1.0750322,-0.4217739,0.13820888,-0.6614645,-0.049328342,-0.9927942,0.61247444,0.9784815,0
-1.851651,1.3357245,-0.35387057,0.79410064,0.08958452,0.38728747,0.5215378,0.66857797,-0.1868096,-0.18112853,0.5891884,-0.646712,0.3148542,-1.3787216,1.2356955,0.09611072,14
-2.08538,0.6143171,-0.92083967,0.9815096,0.20559877,1.848131,0.81068444,1.3964545,-0.87570393,-0.07932623,1.3681793,-0.08538009,-0.024188576,-0.28533092,1.5517695,0.4315591,14
-1.9062803,0.5666088,-0.20168552,0.314005,-0.13979478,1.0534654,0.60804147,0.73961985,-0.80643046,-0.61719036,-0.17428982,0.15553999,0.42202407,0.15592976,-0.3064584,-0.09646091,14
-2.3349884,-1.0245881,-1.0154523,0.86778444,1.2895905,-0.3402131,0.5810631,3.1160884,1.1596868,-0.23911802,-0.2696097,-2.1820626,0.15571886,1.5479598,0.91133547,0.63806385,13
-2.5647864,-0.803453,-1.0830628,0.9712079,1.5044568,-0.19948871,0.72752434,3.5150251,0.8222293,-0.11059266,-0.4433672,-2.030693,0.3975732,1.955913,1.0360323,0.7054248,13
-2.600984,-1.2354316,-1.2415577,0.8023269,1.4976363,-0.8119519,1.4323434,2.8484015,1.258799,-0.6838682,-0.25816086,-2.441337,0.7141046,1.9779899,1.480154,0.3626346,13
-1.6612144,0.62333596,-0.6435358,0.027041325,0.7626557,1.4681053,0.5426002,0.37879258,-0.8965406,-0.2014697,-0.7753118,-1.3238649,0.054890145,-0.43947658,-0.4202957,-0.20749241,17
-1.4509265,0.4799398,-0.49424022,0.09397604,0.6663249,1.214883,0.57973725,0.26827016,-0.98092544,-0.19773395,-0.90585506,-1.165008,0.0613244,-0.43169558,-0.42039153,-0.22405441,17
-0.22486657,1.4304492,-0.07496866,0.9703326,0.52131,0.3233563,-0.31896505,1.6436466,0.88664466,-0.18099561,-0.9823888,-1.1103063,-0.73604083,0.48236996,0.39390612,-0.31273764,10
-0.35916016,0.6399301,-0.07347798,1.3586241,1.1979305,0.77510935,-0.6490374,0.8973584,0.8590152,0.6160732,-0.8841166,-0.3722414,-0.07143843,0.75231546,0.62924486,0.2584857,10
-0.13817835,1.7585584,-0.099287055,0.9411597,0.94352907,0.5059022,0.026096014,0.87791705,-0.038811795,-0.8423167,-0.6837654,-0.6586949,-1.3302637,0.33280185,0.022543412,-0.26690447,6
-1.2195219,1.1960826,-0.15622967,1.2370079,0.20494029,-0.3070547,-0.92101264,0.7132537,1.1709173,-1.0405874,-0.4716896,-1.711345,-0.50386465,0.6311445,1.1557997,-1.0966586,10
-0.52777016,1.1093554,0.20551266,1.6415101,-0.24975337,-0.38536367,-0.6880163,1.4941007,0.14883056,0.6621563,-0.4663031,-1.4274483,-0.5289809,0.66183007,1.1938301,0.708998,10
-0.29638642,0.8172311,-0.36431536,0.63954604,0.5029961,0.27609602,1.0062107,1.6273994,0.7312996,-0.25634903,-1.4893636,-1.1916738,-0.5845688,-0.33642852,-0.21818824,-0.7397563,6
-2.8722005,0.75432473,-0.8355298,1.9724869,0.16177918,0.60855377,-1.353039,-1.0674747,0.23050296,1.6689866,-0.9407175,-0.41201234,-0.04981089,0.5709977,0.42572463,2.2102506,10
-3.1013293,0.6303825,-0.588485,2.1145926,0.59655464,0.8788546,-1.6120057,-1.1897517,1.0615344,1.8107218,-0.9134179,-1.5436106,0.161181,0.7849074,0.8713869,2.850427,10
-0.65805596,0.7299556,0.7507737,1.7215679,-0.28194255,0.51296395,0.8962132,-0.36173868,0.11420708,0.39851,-0.31837657,-0.7639418,0.8736605,0.39847872,0.09721523,0.7782964,0
-0.47906885,0.5755529,0.47669387,1.4880894,-0.21142712,0.30607024,0.8689552,-0.23836,-0.07602166,0.45001212,-0.29730552,-0.44176742,0.75491995,0.42757168,0.24498604,0.80840933,0
-2.5941079,0.22430198,0.9806087,1.1566619,0.63492954,-1.7248313,0.341971,0.48722026,-1.4168408,1.3412179,-0.57246065,-2.0220838,-1.3755541,1.871225,0.344705,1.4001689,3
-1.8526205,-0.027743367,0.7884082,0.93488646,0.24130753,-1.7729532,0.26321185,0.46971068,-1.015106,1.4166989,-0.8207562,-1.9180096,-0.9693192,1.7534744,0.85850495,1.3545749,3
-1.7399415,-0.21086264,-1.0236845,1.2385257,1.1428505,1.578464,-1.2220689,-0.51707757,1.0789613,0.4321504,-1.1359029,-0.63443923,-0.78482366,1.3068776,1.2104053,-0.37155834,10
-1.639208,-0.20888318,-1.1739748,1.3894043,1.1179593,1.5694088,-1.1911067,-0.19929758,1.0097265,0.63763785,-1.2406367,-0.6889009,-1.1604083,1.5791303,1.2295794,-0.2060563,10
-1.2902591,-0.17682779,-0.41028315,0.91260606,0.9480763,0.62984556,-0.9858175,-0.69640565,0.95627546,-0.12099727,-1.2228907,-0.3984889,-0.469224,1.1566197,1.2320213,-0.32262605,10
-1.8194121,-0.8542447,-0.5035597,0.6092197,1.0497051,1.0853618,-0.7282813,-0.4985407,1.0656195,0.6468833,-1.1239781,-0.5274304,-0.14153114,1.1149443,1.5488336,-0.5044408,10
-2.2148926,0.21227169,-1.5547001,0.6445482,1.3287278,1.1854484,-1.1128181,-1.3367835,1.1629839,0.5515961,-0.8697792,-0.8645917,-1.1221882,0.5266182,1.4586575,-0.4984377,10
-1.3567405,-0.10897969,-0.75397587,0.60614526,1.0052428,1.0366346,-0.8216828,-0.047647823,1.3793389,0.45057684,-0.9512701,-0.6118307,-0.37194282,0.7430795,1.3247001,-0.13937308,10
-1.459781,-0.3996539,-1.1222947,1.6677372,1.0647091,1.572229,-0.9921592,0.011563331,1.3883747,0.33160564,-1.1719632,-0.6063745,-0.72834164,1.4967561,0.8081318,-0.7204354,10
-1.4416453,0.03262331,-0.4528246,1.6780765,0.6875335,0.85011977,-1.5395962,-0.49809417,0.9431246,-0.17202003,-0.57551193,-0.36835954,-0.28114817,0.33598584,0.7760812,0.21327765,10
-0.7446051,0.7544747,-0.43708253,1.186764,-0.16074805,-0.017485635,1.1258916,0.49902838,-0.5185498,0.44958276,0.81549215,-0.6900989,-0.5997919,-0.8755128,1.083103,0.8426685,14
-1.5493503,0.9979438,-0.05696927,0.70458657,-0.10308993,-0.05840129,0.8133394,0.8895737,0.13803591,-0.21274774,0.5233397,-0.56096643,-0.4274638,-0.94994044,1.423542,0.053655766,14
-1.4804999,0.1711661,-0.17185733,0.9236009,0.30836037,0.17522985,0.9608879,1.3197608,-0.50870883,-0.075519554,0.7484836,-0.5863915,-1.3015944,-1.0948167,1.4061931,-0.012793409,14
-0.21581213,0.6151931,-0.30111814,1.2583914,-0.30690712,0.31639406,1.181407,-0.34988922,-0.16134529,0.46405894,-0.13763975,-0.57907784,0.009400495,-0.2987517,0.35255292,1.1691492,0
-1.9557256,-0.54970425,0.40953466,0.3090839,1.0906414,-0.7018994,0.43738118,-1.6829357,0.035892002,-0.9494173,-0.96135545,-0.3545468,0.94761235,-0.8424017,1.8842896,0.45537072,2
-2.1561859,-0.88184214,0.49107996,0.1625843,1.5344266,-0.6459206,0.6963023,-1.6287484,-0.36042076,-0.75476575,-0.92332727,-0.35429186,1.1117189,-0.7435108,1.8176703,0.49307412,2
-1.714601,-0.4206259,-0.09245736,0.65777177,0.80318284,-0.5135309,0.3711164,-1.8185673,-0.3663179,-0.8723145,-0.6933691,-0.6086842,1.1579117,-0.6711607,2.0969722,0.40916607,2
-1.8576561,-0.63148534,0.06786502,0.48151806,1.1294835,-0.5787103,0.39231303,-1.7057229,-0.23160313,-0.7411014,-0.84565866,-0.5193052,1.2331845,-0.6844605,1.8548075,0.42247593,2
-2.2708156,-0.6327628,0.6201669,-0.19722527,1.4943591,-0.72175455,0.5498999,-1.2502282,-0.28727865,-0.7613894,-0.8368356,-0.06610038,0.7881454,-0.9023437,1.4070014,0.39097124,2
-0.9701605,-0.26938397,0.20170702,0.6760212,0.32726884,-0.24278171,0.20111005,-1.734622,0.037362684,-0.8332815,-0.79438454,-0.36650503,0.45499736,-0.8667436,1.989284,0.3646518,2
-1.8013397,-0.344422,0.14985809,0.64833146,0.7526443,-0.76025784,0.40636924,-1.7809238,-0.3299569,-0.7710204,-0.71227247,-0.51239157,1.1766676,-0.5798806,1.998023,0.22171149,2
-1.8023614,-0.41816983,-0.18094221,0.35812482,1.2081914,-0.49539313,0.3541881,-1.6778466,-0.49267247,-0.9120441,-0.7568807,-0.53483456,1.3066304,-0.4946275,1.8681499,0.43218255,2
-1.9186168,-0.47185695,0.174821,0.44401905,1.0807947,-0.8305351,0.0962163,-1.6348599,-0.111776955,-0.1810273,-0.8979623,-0.64873165,1.1077036,-0.64103,2.084473,0.47642696,2
-0.9104884,0.7518908,-0.05987221,2.0854745,-0.45575973,0.39876294,1.702994,0.787228,0.31389904,1.1082875,-0.36413264,-0.8934975,0.38300854,-0.05116055,-0.28127104,0.121866554,0
-0.4182408,0.45964742,0.25636134,1.7697285,-0.05876315,0.23756973,1.4480119,0.3357074,0.20901616,0.78296393,-0.3093277,-0.77238715,0.5401583,0.1590659,0.3906384,0.97110516,0
-0.67640275,0.447317,0.09082078,1.9810107,-0.27127704,0.14057492,1.5222507,0.4430276,0.29264712,1.0326023,-0.52099293,-0.30436257,-0.23064628,0.32078078,-0.24339415,0.5367547,0
-1.7369589,0.7675194,-0.30292287,1.8893639,-0.654771,0.14105606,1.7078066,1.3542426,0.71637315,1.2344494,0.45864135,-0.6488929,0.39672372,0.19787534,0.3891915,-0.5524625,0
-0.66580445,0.092639945,0.114796124,1.6849676,-0.4255469,0.24586712,1.5456519,0.7590118,-0.06550982,0.7264371,-0.37882563,-0.7989079,0.5923059,0.3448313,-0.23684333,-0.28148037,6
-1.4885405,0.346667,0.12961572,2.3228736,-0.9356615,0.3604578,1.4364647,0.9385936,0.55127114,0.92828006,-0.58171874,-0.38819388,0.62726504,-0.35687184,-0.53791904,0.1909228,0
-0.515405,0.5879688,0.280024,1.865252,-0.23548718,0.05346497,1.7065829,-0.2624509,-0.039634943,0.4291702,0.03418316,-1.0183169,0.17087133,-0.08959213,0.14819461,0.9645302,0
-0.62211543,0.77437025,-0.012252833,1.3786561,0.5451108,-0.05975488,1.8269908,0.47206646,0.72466475,0.6334267,-0.21509692,-0.33092493,-0.19882992,-0.10801709,-0.46936017,0.51935244,0
-0.89697474,0.50140077,0.24918288,1.2147617,-0.6925424,-0.15470444,1.346351,0.062551446,0.50709635,0.79489684,-0.35926077,-0.9755308,0.30017912,0.06792213,0.21418461,0.773413,0
-1.4510983,-0.97694576,-0.34825683,0.032121148,0.23571035,1.44924,0.82207966,-0.4434684,-0.625985,-0.94482696,-1.8590797,-0.95651513,0.5479582,0.45089084,-0.15088993,0.11583931,17
-1.6486229,-1.1698254,-0.26325208,0.033379648,0.106179394,1.4120716,0.72290695,-0.52408296,-0.61913055,-0.5231728,-1.9143069,-1.2938877,0.5669555,0.3899615,-0.4374908,0.7090275,17
-1.494784,-0.79763776,-0.43337557,0.19038878,0.112169564,1.0929974,0.6933699,-0.56698954,-0.50949657,-0.716131,-1.6055176,-0.54222053,0.22093506,0.50777364,-0.46295682,-0.3462249,17
-2.2834983,-0.8378319,0.32540938,0.24339771,1.251905,0.9505681,1.9261285,0.5457447,0.17971832,-0.09173692,-1.1057025,1.3179284,0.35528162,-0.2993779,0.14052825,-0.023514727,8
-1.4901643,0.044864126,0.47928014,0.79155064,1.2355874,0.6373263,1.5914296,0.46987563,0.54666895,-0.23231363,-0.9238099,1.5249391,-0.1678954,0.17272021,0.3486303,1.0834655,8
-1.7475222,-1.0582409,-0.22564636,0.1699615,0.24203253,1.1101981,1.2800248,0.33841082,-0.5358668,-0.46329895,-1.1424657,-0.48791575,0.92115235,-0.07862663,-0.1666028,-0.69379985,17
-1.6510174,-0.006409072,0.6215421,1.227007,1.2285004,0.7589204,1.5361328,0.51715416,0.4590357,-0.17672299,-0.60995007,1.3346845,-0.32957548,-1.0750376,0.12899476,0.16225384,8
-1.9540902,-0.18637595,0.34576684,0.6482124,1.8378634,0.8358524,1.5082791,0.4948543,0.045898978,-0.32573906,-0.7240156,1.3115764,-0.136024,-0.70492035,0.22101884,0.7237731,8
-2.7729108,-1.0694566,0.91627556,-0.025836494,1.5899608,0.56072164,1.8016816,0.2426319,0.07790384,-0.07499681,-1.3150241,1.0329283,0.38576892,-0.37166083,0.1871901,0.32559687,8
-2.1713834,-0.9862521,0.26594383,0.5754631,1.6238965,0.5817822,1.9726244,0.43275476,0.46958622,-0.28961855,-0.13347419,1.100657,-1.0889754,-0.26629844,0.20097533,0.27073494,8
-1.8772831,0.06836102,-0.0019741943,0.4267971,1.3723061,0.81411725,1.4722162,0.8082432,0.7296392,-0.7471266,-0.7606621,1.3003578,-0.39400107,0.105060704,0.36120048,0.3024883,8
-2.0249383,-0.118635,0.33975092,0.41701674,1.288139,0.86672336,1.9222367,0.7669914,0.6117719,-0.4079829,-0.7048167,1.2533244,-0.24663974,-0.04618381,0.4014685,0.17962225,8
-2.161648,-0.2415575,0.19440028,0.4467643,1.7382882,0.14299741,1.3108621,0.67396545,0.1614368,-0.1456967,-0.89108104,1.4239568,-0.2144512,-0.103668325,0.28765634,0.73062956,8
-2.8471909,-0.69220585,1.0913421,-0.15148862,1.5981358,0.60147166,1.385502,0.19837615,0.30018273,-0.37889332,-0.7744006,0.69992185,0.34742185,-0.16853184,0.010440987,0.76194376,8
-1.8188934,0.24255988,-0.04057142,0.55509317,1.6172513,0.56354046,2.514962,0.25851107,-0.19445936,-0.003787934,-0.803565,1.3280181,-0.80560696,-0.32761663,0.13291115,0.6436961,8
-2.124111,-0.49569285,0.6052506,0.8256966,1.7824663,0.30257422,1.7807993,0.40620464,0.53589803,-0.3244883,-0.2051278,1.0902932,-0.39893514,-0.60540724,0.15295018,-0.059820477,8
-1.7135953,-0.016711209,0.36958808,0.80002326,1.3351253,0.5385359,1.7696375,0.6190795,0.11653845,-0.13304022,-0.675316,1.4172388,-0.14440574,-0.6596359,0.4892166,0.3277162,8
-0.35020837,0.3296185,-0.2371532,1.659056,0.56193775,0.11468612,-0.51297534,0.14870088,1.4691674,-0.8051643,-0.57218647,-1.035681,-0.11557067,0.64057696,2.111042,-0.10752005,10
-0.5378522,0.300228,-0.45240545,1.7491473,1.0679003,0.4687876,-0.7547218,0.5902166,0.79805267,-0.45364627,-0.1501536,-0.33969724,0.34461692,0.22186774,1.3738166,-0.14773701,10
-0.3924832,0.5328905,-0.78541905,1.3542557,0.1707953,-0.13241565,0.025645563,-0.51003283,1.9193076,-0.78989416,-0.7789999,-1.8432846,-0.5405849,0.78722036,2.6774757,0.24155639,10
-0.26934806,0.1572279,-0.35882273,1.9748112,0.6238108,0.35457608,-0.62551653,0.39714566,1.177213,-0.6496848,-0.64152455,-0.3155173,-0.13657533,0.29467508,1.8502378,0.014469829,10
-0.4395954,0.19078508,-0.9885167,1.3340381,0.8946993,0.06328163,-0.41263157,-0.120514706,1.6700058,-0.71955836,-0.454559,-1.5110192,-0.40134674,0.65238935,2.3710408,0.11204809,10
-0.44697937,0.61882,-0.6667548,1.7897433,1.0877959,0.21444376,-0.38781226,0.08905539,1.7926085,-0.34651074,-0.73958415,-0.7564341,0.10324358,0.8156065,1.3357608,-0.052676164,10
-1.2173419,-0.021709431,-0.46670628,1.408889,0.45999244,0.03549829,-1.0335584,0.42237246,0.5713144,-0.32295394,-0.06482934,-0.67737985,-0.108969815,0.7372365,1.7698985,-0.74836475,10
-0.37146762,0.41495433,0.55280685,1.6831278,0.34209532,0.04393464,-0.48765254,-0.1298336,1.261842,0.020648228,-1.3529217,-0.48053855,0.47714132,0.28632253,1.7386527,0.38473275,10
-0.715544,-0.6015435,0.46767798,1.584667,0.38403776,0.38013375,-0.95333636,0.48872885,1.2357252,-0.74586904,-1.6616198,-2.7329366,0.29771775,0.6159307,1.9446026,0.09143646,10
-0.89802444,0.8708082,-0.55101615,1.4416143,0.19149165,0.12622134,-0.2967294,-1.1385936,1.7787467,-1.3859055,-0.64735085,-2.1442437,-0.31956336,0.8568015,2.4694784,-0.16384076,10
-0.24361202,0.65063465,-0.33731008,1.8728745,0.93737924,0.15308732,-0.33643427,0.096764825,1.9525541,-0.81675243,-0.67981404,-1.3473969,-0.035506368,0.80084866,1.802562,-0.013787947,10
-0.7451493,-0.009808736,-0.57817084,1.7771146,0.55271566,0.4034692,-0.548704,-0.23815583,1.2359991,-0.40036032,-0.13102487,-0.23271653,0.025901183,0.15557447,1.8588202,-0.16869633,10
-0.41353244,0.34810448,-0.0004414321,1.6139615,1.0202721,0.26504806,-0.47225395,0.22997752,1.5318373,0.03757587,-0.6129467,-0.48348114,0.09893385,0.39479902,1.7243494,0.29643038,10
-0.63508517,-0.40650886,-0.16867499,1.6856534,0.6362417,0.5387149,-0.96965164,-0.08188783,0.99727446,-0.55928314,-0.6588999,-0.5194093,-0.16021635,0.08239618,1.3529621,-0.18391934,10
-0.45605662,0.41418153,-0.43470296,1.4974147,0.6384647,-0.026920952,-0.36558446,0.36746103,1.7481679,-1.1426954,-0.85226643,-1.2411591,-0.22515436,0.55201936,2.3081865,-0.352461,10
-0.51841587,-0.11720192,-0.27280983,1.9605324,0.5807898,0.4826329,-0.89639145,-0.07983265,1.2126619,-0.6192653,-0.33931264,-0.69706446,-0.4835343,0.59050286,1.4370065,-0.005514384,10
-0.694532,-0.051418062,-0.6516189,1.8756737,0.8057613,0.50094676,-0.58884233,-0.22542913,1.2524354,-0.4522129,0.010838957,-0.5619574,0.2605525,0.5029629,1.9301327,0.06555702,10
-1.1077658,9.759398e-05,0.36540312,1.5436515,-0.052670307,0.53669107,-0.6732095,0.5163717,1.7817464,-1.5822809,-1.2566351,-0.96344423,-0.98674566,1.0807389,1.9440944,-0.6307642,10
-0.23445304,0.6494341,-0.28160977,1.7503464,0.8792091,-0.058741048,-0.3039441,0.68807757,1.4544641,-0.51331466,-0.9180432,-0.5533096,0.021299837,0.23108883,2.0779638,-0.07933273,10
-0.8305707,0.7107602,-0.62016034,1.2441046,0.4412621,-0.16208473,-0.2871519,-1.2561994,1.7031572,-0.9565188,-0.92595994,-1.7745537,-0.27045926,0.6056828,2.3916492,-0.18656726,10
-0.80748713,-0.004740422,-0.55177903,1.6806513,0.688483,0.16029982,-0.38957402,-0.110926375,1.5927491,-0.4540528,-0.30486256,-0.27588734,-0.21600616,0.8051999,1.2781953,-0.45153174,10
-0.65659827,0.09391593,-0.28831273,1.8303939,0.7462152,0.12883933,-0.7562302,-0.17810716,1.3355982,-0.23120317,-0.610077,-0.23931326,-0.25247622,0.37974644,1.6338967,0.09646267,10
-1.8004797,0.61696875,-0.82962966,2.4097424,0.5965138,-0.9248045,-1.701017,-1.3398675,0.24407421,-1.4734731,0.031768017,-1.1869752,-1.1685201,-0.09406745,0.60266995,0.6152238,11
-1.8739084,0.58700186,-1.0012149,2.9453702,0.88356405,-1.4502561,-0.27519774,-1.8866906,0.03605078,-1.5623549,0.5124638,-0.7247977,-0.78789693,-0.2864996,0.69760513,0.6623648,11
-1.2775159,0.3872233,-0.32201132,1.9206585,-0.37862357,-0.70461434,-1.5193847,-0.8221224,0.46625245,-0.84775394,-0.47575435,-1.0985774,-0.56600547,0.2592522,0.9670671,0.7513144,10
-2.0136795,0.8236487,-1.1566032,2.782192,1.1124316,-0.977059,-0.8450047,-1.4962131,-0.6234951,-1.5280346,0.08651991,-0.627713,-1.6368113,0.00044340477,0.40665808,-0.023892479,11
-1.8808892,0.68824345,-0.41032708,2.0108106,1.9509146,-0.2997404,-1.5038855,-1.1682962,0.19274214,-1.5369213,-0.00786446,-0.4172717,-1.4139557,-0.22318253,0.11018839,0.60688967,11
-2.2211087,0.7294561,-0.7858887,2.5249996,1.8103272,-1.1358058,-1.2444924,-1.2532705,-0.11942222,-1.6632026,0.047149412,-0.72969496,-1.4248935,-0.116538204,0.30088773,0.08532173,11
-0.68820935,-0.9763644,0.03190846,1.006593,1.1343881,0.91826445,1.1137825,-0.9474367,0.468402,-0.17375822,-1.0328463,-2.2137241,-2.281067,-1.8403966,0.39866644,1.11387,5
-0.56159097,-0.8352092,-0.0769604,1.3069338,1.3022006,0.7592491,1.3664718,-1.5179342,0.1344399,-0.36045003,-0.93741024,-2.296864,-2.1862743,-1.7495149,0.4113863,0.9846571,5
-0.9957204,-0.3748597,0.48853227,0.54937786,0.080708966,0.91779166,0.4030261,0.007353731,0.3572882,-0.3321079,-0.9817109,-1.8385799,-1.2942042,-1.4370939,-0.30325416,1.2514948,5
-0.09477151,-0.57406837,-0.4321634,0.9491779,1.0659258,1.039182,1.5919392,-1.3213863,-0.52760273,-0.25667244,-0.82590777,-1.6799604,-1.5164759,-1.1962671,0.22991244,0.82378304,5
-0.80659467,-0.7968276,0.23161675,1.0688317,0.9499656,0.70245355,1.5120013,-1.6774507,0.4710928,-0.09287534,-0.8739117,-2.0542438,-2.3340957,-1.5059139,0.6870543,0.8270507,5
-0.6303128,-0.8603321,0.26682398,0.95417905,1.0073994,0.21459611,1.277166,-1.4338868,-0.18006419,0.30772206,-0.86210155,-1.5970547,-2.0233896,-1.3548245,0.764282,0.79696566,5
-0.59268,-0.81502914,0.33548924,1.1420667,1.0371181,0.6226822,1.2816452,-1.3323102,-0.044184264,0.16225645,-0.8458347,-1.761953,-2.3186269,-1.4012407,0.805415,0.85056937,5
-0.70052516,-0.89380646,0.21729475,1.3235623,1.6664454,0.64411676,1.4311827,-1.6992027,0.5156494,-0.27188697,-1.0324395,-2.1621997,-2.318793,-1.6791297,0.52637,0.85518545,5
-0.76118994,-0.8371437,0.46498847,1.1723567,0.9744112,0.46528816,1.1289935,-1.466252,0.30015883,-0.3485416,-1.2057163,-2.0452728,-2.2732165,-1.7111452,0.46078303,1.0515373,5
-0.766329,-0.932781,0.009069256,1.1224086,1.17306,0.66089815,1.2036575,-1.4423219,0.38268805,-0.30522054,-0.8695864,-2.130517,-2.3266087,-1.6478027,0.64325607,1.148543,5
-0.6203662,-0.785345,0.61163265,1.0393512,1.0429509,0.33291942,1.017022,-1.2583016,0.09341375,0.1262991,-1.1565762,-1.7818527,-2.174862,-1.488606,0.77456,0.7411133,5
-1.8842189,0.6941662,-1.3569839,2.2458684,-0.4442911,0.42764774,-0.7103766,-1.7881098,1.3115408,0.28974447,-0.6141966,-0.47813836,0.15099962,0.52985513,1.6657906,0.114386715,10
-1.769013,0.59605587,-1.0064179,2.103094,-0.26512316,0.15070283,-0.8348132,-1.5548477,1.5635492,0.2089598,-0.309513,-0.5138515,0.00048001186,0.49137726,1.7141579,0.18468437,10
-1.7392385,-0.7043706,-0.6560438,1.5768936,-0.93152887,1.7275867,0.028588545,-0.25284034,-1.682447,-0.95209163,-0.75982606,-0.33083716,-0.11705316,0.21457574,0.026676385,0.5770242,17
-1.5586432,-0.72585624,-0.6531165,1.2330217,-0.6487726,1.4470034,0.042871576,-0.2718391,-1.4017649,-0.89238054,-0.60912544,-0.1913347,0.20345311,-0.17704235,-0.032714594,0.39237642,17
-1.5996667,0.85643166,-0.14687717,1.8813696,-0.11845139,1.212406,-1.1500843,-0.0464339,0.9573754,1.0200914,-1.3695439,0.37216175,-1.1489732,0.043666538,1.0183474,0.32775837,10
-1.8679405,0.24985069,0.47355038,1.692016,0.25630674,0.9723832,-1.2794367,-0.8304416,0.6617574,0.38895342,-1.7690881,0.79078287,-0.79524034,0.06879634,0.83826125,0.12231755,10
-1.3245234,-0.42307016,-0.1327427,0.54864645,1.1519678,0.39055476,-0.9536719,-0.12858078,0.63052016,0.075426,-0.9793025,0.061481886,-1.1654806,0.35954425,0.6561584,-0.27600285,10
-1.3038615,0.056725517,-0.11266617,1.7087654,-0.0045655197,0.32769933,-1.2786137,-0.95283633,0.80657756,-0.56508213,-0.79262435,-0.35982516,0.14537401,-0.15882556,1.2765092,0.088202804,10
-0.51594925,0.4272734,0.15634663,1.6080316,0.2651712,0.940055,-0.3014472,-0.56128544,0.9103435,1.5272374,-1.0406076,-0.20868914,-0.085780635,0.41322318,0.5755172,0.6462756,10
-1.1949915,-0.12079074,0.25858182,1.634722,0.764823,0.640779,-1.1845669,-0.27655557,1.2576392,-0.2876625,-0.5489861,-0.7852876,0.011467002,0.47018227,1.3848529,0.017861504,10
-0.5793573,-0.40382227,0.35302076,1.5104666,-0.055652905,-0.04758929,1.8258069,0.32433322,1.3782732,0.20685348,0.021120572,-1.076121,0.08048975,0.14610314,0.11987599,0.8234419,0
-0.5130533,0.125683,0.20141341,0.93804026,0.051207837,-0.16897026,1.6529552,-0.22513537,1.2560639,0.381486,-0.25534946,-1.198168,0.3726523,-0.42552894,0.5043802,1.4327914,0
-0.8732362,-0.47930008,0.773644,1.5078435,-0.5553901,0.22557704,1.477639,0.4188937,0.48836654,0.14812106,-0.10919045,-0.4429311,0.4550645,0.5585,0.48373556,1.1099662,0
-0.59811616,-0.7038392,0.4865187,2.238633,-0.12837724,-0.34159973,1.5386568,0.12569709,0.7001108,0.34333593,0.26643363,-0.7562838,-0.07070125,0.71896315,0.15658478,0.1430269,0
-2.5159867,-1.0840387,-0.21530902,1.8554258,1.4637277,-0.90419155,-1.2512728,0.59116966,-0.3686532,0.90475816,-0.36471045,-0.7121142,-0.16677424,0.288926,0.26398587,-0.20918615,15
-2.2866764,-0.834723,-0.171702,1.5886555,1.3845909,-0.6409863,-1.1518829,0.26816753,0.010613471,1.0851948,-0.63099754,-0.51322335,-0.21764867,-0.2460403,0.4910126,-0.44940853,15
-2.5607731,-1.1367606,0.10145651,2.267455,1.4704677,-1.0399373,-1.1387905,-0.049528886,-0.598562,1.3106028,-0.8317884,-0.97747904,-0.47381827,0.3790164,-0.46987602,0.14176933,15
-1.6840546,-1.2067538,-0.24699076,1.6354018,1.3813359,-0.42396694,-0.70540464,0.3485428,-0.45974278,0.8220207,-0.11812307,-1.4144888,0.23299782,0.23805282,0.16561347,-0.56443274,15
-2.8533206,-1.3601722,-0.05684217,2.1576679,1.6036011,-0.77001363,-1.2201039,0.52056843,-0.095754646,1.0780854,-0.80765784,-0.4689754,-0.33610287,0.20772354,-0.19067377,-0.34215134,15
-1.9722674,-0.73719704,-0.3565186,1.985617,1.3529106,-1.2473567,-0.6442045,0.79670745,-0.17446724,0.78688276,-0.4070569,-0.4069781,0.14384516,0.17000738,0.6531448,-0.7161488,15
-2.3987598,-0.9190022,0.05755936,1.9321489,1.5616099,-0.6922922,-1.2359703,0.6040476,-0.5860211,0.86328965,-0.63156724,-0.5579851,-0.22275963,0.4423595,0.113116115,-0.35498792,15
-0.66559154,1.2568465,-0.06759925,2.251111,-0.2504849,-0.84813136,1.6583066,-0.57703173,0.18636474,0.9542791,-1.4259404,-1.600078,1.0992223,0.4539343,0.18595445,0.63116765,0
-0.60332984,1.3822272,0.24851067,2.2999263,-0.17494467,-0.9135871,1.8080736,-0.6743905,-0.023310672,0.9611048,-1.385143,-1.7746783,0.75940645,0.5000354,0.35730118,0.51225835,0
-0.7441345,0.749909,0.2957569,1.4737256,-0.32561332,-0.4027829,1.3722712,-0.03889539,0.39205724,0.8430084,-1.0383335,-1.2171222,1.3552259,0.40588167,0.43147394,0.56214035,0
-0.30039552,1.0808908,-0.05995519,2.0863974,-0.31988502,-0.53325784,1.5938559,-0.4113888,0.0719991,0.80860215,-1.1983532,-1.8186407,0.7768194,0.19891025,0.37357244,0.6823463,0
-0.35985702,-0.63248765,0.036691073,1.1705558,0.114474006,-0.44511628,1.8441777,0.06516382,-1.9669967,-0.3544107,-1.2785261,-1.4217218,0.59878904,0.5054199,-0.2471555,1.15787,6
-0.6400271,-1.0632243,0.13214487,1.3141373,-0.40410653,-0.30197707,1.7396612,0.05810164,-1.3143774,0.53998345,-0.98612136,-0.6941396,0.566985,0.12740819,0.20194057,1.2361456,0
-0.37408194,0.13036723,-0.180752,0.78680754,0.5252974,-0.054804005,1.1136044,-0.15389255,-1.7790465,-0.9200059,-1.2047286,-1.5044165,0.33416072,0.48298958,-0.30149108,0.39364266,6
-1.0785913,0.52951825,0.6010587,2.1285696,-0.4586287,-0.20869775,1.3760513,0.035164088,0.096781716,0.5520177,0.3217246,-0.24674007,-0.2131113,0.16469668,0.31013894,1.0510095,0
-1.1511487,0.4944898,0.6248557,2.0932305,-0.7101338,0.3347609,1.3362026,-0.564396,0.5262286,0.13869675,0.70556647,-0.24628015,-0.12913117,0.17752217,0.33737835,1.0063024,0
-0.75263596,-0.17530508,-0.34268168,1.9118233,-0.0030797927,-0.4970834,1.8266041,0.88192886,0.10958597,0.51225054,-0.14447582,-0.23944661,-0.16400436,-0.00713201,-0.27323046,0.62952596,0
-0.82705325,-0.051118154,0.78017884,1.566511,-0.38442445,0.13065255,1.4357347,0.34030217,0.26422983,0.1753735,0.23402807,-0.67717487,-0.13405618,0.819762,0.37041515,1.4653405,0
-0.82081646,0.9812045,0.4251652,1.5266148,-0.32356903,0.20398344,1.5802728,-0.67459154,0.12769127,0.3038212,0.43137273,-0.5563514,0.100219406,0.033102494,0.40978938,0.8962924,0
-1.7466725,0.33486244,0.68414176,2.536571,-0.43775186,-0.7168625,1.1910752,0.03870541,-0.094119415,1.5514897,0.16753553,-0.059074774,-0.03935939,0.36363107,0.52997375,0.8804093,0
-0.9314182,0.09561113,1.2073905,2.3001816,-0.19204104,-0.47917,0.96757686,0.07882095,0.2633564,0.90104413,-0.19339995,-0.32591859,0.06798776,0.092365675,0.5558191,0.8631313,0
-0.4303495,0.3576007,0.47386172,1.446748,-0.2519851,-0.06848778,1.6192069,-0.051443204,0.40200496,0.40748027,-0.2334268,-0.51690996,-0.015710536,0.46770328,0.73869014,1.2785498,0
-0.9687449,0.8582224,0.35289618,1.0297115,-0.5082791,0.9194535,1.8967249,0.15431917,0.4839246,0.44340134,-0.27965498,-1.052984,-1.355798,0.10460823,1.545869,-1.4960773,6
-1.2173526,0.7578976,0.43045786,0.8746848,-0.19756503,1.1166412,1.4607027,-0.44592562,0.6362311,0.51893157,0.21171314,-0.69870603,-0.8686658,-0.24689986,1.742058,-1.2557744,6
-1.3233869,0.45107478,0.67396796,1.4920505,-0.25518999,0.5526665,2.17185,-0.1317648,0.74126464,0.58678955,0.2117446,-0.47522587,-1.0436956,-0.27434653,1.3215139,-1.4930907,6
-0.5996861,0.32248223,0.39650223,0.5938932,-0.5876693,1.486911,1.8148663,0.033559173,-0.17720148,-0.03186251,-0.34711766,-0.34150803,-0.22677936,0.058187425,1.481127,-0.5899415,6
-0.5683885,0.47886622,0.29481855,1.6949626,-0.087382734,0.4619078,1.6712906,0.8701358,0.0726891,-0.60059285,-0.42773065,-0.40278187,-1.7916166,0.31465265,1.7912668,-1.6716708,6
-1.1960592,0.7632002,0.98507667,1.3835341,-0.45700952,1.2293116,1.5459126,0.09226125,0.6279885,0.7459601,-0.14542659,-1.4694159,-1.3807678,-0.66434485,1.4609891,-1.594229,6
-0.96886456,0.72365725,0.3623192,1.009086,0.10490843,0.76555645,1.3543392,0.067075714,0.12382819,0.74572086,-0.40104628,-1.1065819,-0.8191634,-0.373624,1.7911017,-1.9104892,6
-0.8583369,0.72986627,0.58045316,1.0454139,0.3648167,0.47554025,1.2907737,0.6788029,0.025857367,0.25527796,-0.22875486,-0.9499905,-0.6010356,-0.5071842,1.9913282,-1.6418291,6
-1.0748346,0.9311452,-0.12338928,1.1656542,-0.42546013,0.5234321,1.8804228,0.2809356,0.25487712,0.20097466,0.10336103,-0.44758764,-1.7943904,0.20194623,1.7810462,-1.0046178,6
-1.647063,1.5430617,0.19923541,0.46820346,-0.50216794,0.32701164,2.070929,0.164033,0.58905375,-0.26387528,-0.7187925,-0.81769824,-1.7366692,-0.21400939,0.5729163,-1.1745906,6
-0.74042374,0.78551084,0.3931345,0.95628613,-0.648698,0.22307637,1.7329553,0.101023965,0.7074787,-0.23006295,-0.70479125,-0.090359084,-0.6087201,-0.03352905,2.0135303,-0.4239709,6
-1.3291932,-0.39511716,0.5435791,0.79516935,2.36697,-0.5441814,1.6379495,1.650067,0.61458826,-0.61628485,-2.52275,0.8631892,-1.2296855,-0.07413533,1.4181522,1.6422294,8
-1.6413059,-0.4270808,0.26946363,0.6344282,3.025232,-0.6591463,1.781286,1.0451746,0.91377777,-0.5707352,-2.4157693,0.9813106,-1.0923738,-0.14475267,1.7243426,1.7280686,8
-1.4852046,-0.20610341,0.35671633,0.736022,2.3088353,-0.42401826,1.7858446,1.3354245,0.6269838,-0.4396616,-2.1328166,1.0429494,-1.1464263,0.024839561,0.9649686,1.4692302,8
-1.432644,0.29801258,0.8742334,0.76868784,2.237394,0.44708455,0.63095164,0.38058332,-0.08345348,-1.0746633,-0.077517696,-0.53011775,0.0005134831,0.34668612,-0.6384483,0.3240114,8
-1.3152728,0.14542696,0.90177095,0.46650797,1.9049116,0.47302023,0.745028,0.10198921,-0.36245802,-1.2410371,-0.58590376,-0.16351148,-0.18283424,0.049808003,-0.47786126,0.3398209,8
-1.8757913,0.26518875,0.9711277,0.7820519,2.0932362,0.38163543,0.7514883,0.4761662,0.07326138,-1.2002206,0.026099674,-0.4235584,0.114392355,0.23423314,-0.67169935,0.049323395,8
-1.7920328,0.16818416,0.9209296,0.76570797,2.124373,0.41667944,0.53145474,0.31654522,0.031275444,-1.0278502,-0.06346347,-0.30659577,-0.039782945,0.3349209,-0.7182067,0.3304013,8
-1.548342,0.19274312,0.8459606,0.5830061,2.106063,0.38037136,0.63277435,0.22872317,-0.11510715,-1.1703134,-0.053946625,-0.53151506,0.1397567,0.29016015,-0.54015917,0.317046,8
-1.4974269,0.47757062,0.60411453,0.38171706,1.9975629,0.1922628,0.81344503,0.41549686,0.38639987,-0.9687159,-0.1416756,-0.24907574,-0.23162019,-0.12043169,-0.5572123,0.41247457,8
-1.8690797,0.3722742,0.753301,0.81311536,2.2689693,0.33495048,0.5450142,0.42366436,0.6736381,-0.7125771,-0.002405074,-0.3689978,-0.15872577,-0.11177731,-0.736604,-0.09728102,8
-1.4609007,0.12943207,0.95165867,1.1409386,1.7574333,0.36697245,0.5762734,0.78728217,0.005983012,-1.196386,0.095785566,-0.38549066,0.27739862,0.23901929,-0.6736261,0.11315764,8
-1.788731,-0.1912469,1.3528355,1.1748582,2.059592,0.6700989,0.7155985,-0.06329444,-0.5167705,-1.4770101,-0.52163327,-0.18107376,-0.12230738,0.21421467,-0.894926,0.60809505,8
-1.7744533,0.29361144,1.022142,0.627809,2.1202369,0.42526954,0.6574013,0.49982896,0.34963873,-1.1188846,-0.056246746,-0.4184267,0.18762854,0.2792183,-0.44188315,0.16471227,8
-0.17336473,0.4917156,0.43643948,0.5434974,1.409891,-0.10271063,0.14154615,0.37047368,-0.45207745,-1.0982534,-0.24180155,-1.3253434,-0.25598282,0.09174016,-0.13834512,0.46850336,3
-1.3069215,0.24322462,0.2304659,0.71465856,2.1188247,0.5987372,0.68290734,0.17777959,0.17299066,-1.0584992,-0.18846205,-0.5794612,0.34475327,0.49366927,-0.9445371,0.48016784,8
-1.7214658,-0.079787694,1.0207514,0.6394244,2.213821,0.7470913,0.8826438,0.20052344,-0.20964433,-1.2991453,-0.09227058,-0.29640692,0.5248091,0.10672094,-0.27363485,0.6842254,8
-1.7707675,0.05602335,0.7410155,0.49103013,2.1358104,0.59680057,0.6880075,0.026501853,-0.049377616,-1.3205782,-0.2156657,-0.30731365,0.1609302,0.26450244,-0.57129025,0.3978046,8
-1.5424412,0.32833415,0.40018195,0.5161029,2.0039186,0.5321041,0.0008036201,0.31094941,0.109885156,-0.5467867,-0.08962083,-0.11302256,-0.06518534,0.5835908,-0.5303777,-0.16670795,8
-1.4431297,0.011128215,1.1270621,1.0736016,2.2272704,0.5947557,0.8858728,1.1873937,-0.10745697,-1.2102479,-0.27047092,-0.2511657,0.32673624,0.35150534,-0.34069708,0.573885,8
-1.612606,0.3066431,0.91685545,0.7378312,1.9311043,0.40691656,0.87539035,0.1955943,0.22679773,-1.1267291,-7.610237e-05,-0.39239478,0.37491426,0.47921753,-0.6431196,0.46608925,8
-1.6014816,-0.08548711,0.92740244,0.9048183,2.1376011,0.6124338,0.81071806,0.7660252,-0.15390529,-1.2512325,-0.007838954,-0.33534342,0.16554148,0.37549606,-0.49694824,0.4158438,8
-1.8067069,0.42654777,0.8932388,0.84475845,2.1526797,0.41425967,0.7182557,0.082422465,0.46778962,-1.2040789,-0.11647439,-0.5861274,0.042324364,0.08807229,-0.9213998,0.018285094,8
-1.3294095,0.278154,0.85968304,0.6451655,1.9373872,0.7906874,0.8664853,0.46384808,-0.106677614,-1.0961177,0.27073738,-0.33675623,0.15973869,0.32306665,-0.2527651,0.85680354,8
-1.6740296,-0.092834234,1.3324698,0.57489365,2.1086907,0.7388553,0.96746844,-0.27773887,-0.54106873,-1.3183794,-0.5205651,-0.20258316,0.021199338,0.07956673,-0.38424036,0.6425213,8
-1.418615,-0.18999135,1.0610318,0.8643203,2.1535552,0.9077964,0.956802,0.37859827,-0.12281727,-1.4221624,-0.29397765,-0.19802698,-0.07376995,-0.16055135,-0.36781958,0.6809658,8
-0.82478344,-0.49200016,0.45323357,0.5440208,1.0887327,-0.3088347,1.8787968,-1.6378565,1.4684956,0.22212765,-1.1307443,-2.249767,-1.7653109,-0.8044182,0.8445432,1.5245248,5
-0.79328805,-0.4817732,0.3921419,0.5052973,1.2646196,-0.046049092,1.5827781,-1.7434504,0.9592285,0.3964015,-1.183099,-1.9424623,-1.7089156,-1.1829772,0.9734041,1.1033472,5
-0.84302545,-0.3774303,0.2447273,0.28366876,1.1782199,-0.17721601,1.8352035,-1.6212784,1.4783158,0.2766195,-1.1741297,-2.3811269,-2.0662048,-0.83570457,1.2583824,1.4234307,5
-0.8227529,-0.45028868,0.635707,0.62632567,0.6047697,-0.22129975,1.7593484,-1.5256282,1.249618,0.20532131,-1.1279849,-1.8872869,-1.28292,-0.8894769,0.6190237,1.9088088,5
-1.9547355,0.4332057,0.12290414,0.7130636,-0.16737622,-0.6777928,0.47555003,0.93613607,-0.24119763,-0.29535985,0.5797137,-0.6228086,-0.59466404,-0.92858696,1.496441,0.07218276,14
-1.8241913,0.49075368,-0.025018752,0.4797161,0.035406046,-0.20040812,0.6850852,0.8309143,-0.15851824,-0.3300571,0.6030884,-0.5504917,-0.40759265,-1.0593334,1.4907047,0.0066793696,14
-1.679693,0.8470844,-0.035008375,0.5194682,-0.12257406,0.004016059,0.4451737,1.1284322,0.013015417,-0.26773342,0.33989266,-0.7382566,-0.80770403,-1.1826826,1.2301366,0.17322509,14
-1.3335991,0.10936132,-0.45495933,0.63857275,0.18398403,-0.8553213,0.50846183,1.1257625,0.14369972,0.41639954,0.44275257,-0.9337337,-0.33163035,-0.9828011,1.3223486,0.17116761,14
-1.9720541,0.42982912,-0.15310895,0.6136549,0.18148865,-0.24361071,0.8048724,1.0434837,0.21279097,-0.2812054,0.84516627,-0.56768894,-0.7900969,-0.9737891,1.4579382,-0.012501194,14
-1.3512549,0.7548366,0.17205775,0.8954493,0.15419176,-0.017821953,0.8261917,0.82339376,0.06641179,-0.34936246,0.5574617,-0.25932774,-0.3189533,-0.9746073,1.5567485,0.068895556,14
-1.5490867,0.35756204,-0.111929595,0.8059437,-0.10306854,-0.11011354,0.742858,0.87416804,-0.0007205312,-0.3108788,0.8225222,-0.45720387,-0.573544,-0.7668981,1.5842271,0.172413,14
-2.2561822,0.5601586,0.04675197,0.6039976,-0.29322532,-0.7036735,0.6656788,0.951139,-0.35105354,-0.24736495,0.66404915,-0.907723,-0.59151363,-0.7261699,1.5300366,-0.1947314,14
-1.7713227,-0.34154132,0.4582463,0.583719,0.06399674,0.26691103,0.49330994,0.9515573,-1.0938463,-0.24768464,0.55245495,-0.25981852,-0.55045974,-0.6194614,1.4589467,-0.27671477,14
-2.038221,0.23494838,-0.072770104,1.4826114,-0.5604456,-1.1171507,0.4073446,0.79275376,-0.04357961,-1.0061126,0.827182,-0.2389524,-0.8114278,-0.555473,1.1574315,-0.40870935,14
-2.3669941,0.82109463,0.45067593,-0.028298153,-0.044844836,-0.959061,0.7183495,1.093147,-0.5764753,-0.6821159,0.21629184,-0.85453105,-0.019094015,-0.5607824,1.7612419,0.50364685,14
-1.616066,0.36608323,-0.35349724,0.20888211,-0.10152861,-0.29539314,0.793615,0.87200016,0.04717958,-0.12763935,0.49495566,-0.76445377,-0.97482723,-0.8468403,1.6430188,0.46590292,14
-2.016183,-0.21377462,-1.5979617,0.71603096,1.474408,1.2821238,1.4651129,0.8401609,0.95832396,-0.17062964,-0.2557954,-2.1231465,1.4001561,-1.8650731,0.11088888,0.14149514,16
-1.7883093,0.0746163,-1.747321,0.39332673,1.633912,1.5564609,1.73777,0.85911894,0.710955,0.1510622,-0.3369488,-1.8212975,0.6659936,-1.9227543,0.18786627,-0.16698654,16
-3.7174203,-2.124928,-1.5836753,0.92464304,0.87029266,-1.4140089,0.8613884,0.08678433,-0.2831596,-1.5352577,1.270027,-1.5689676,-0.9263239,-0.69227386,0.591243,1.6665725,14
-4.601058,-2.4569805,-1.6945384,2.0189645,0.5760634,-1.1740423,0.75706875,0.12492276,-1.3028842,-2.4015381,1.5589067,-0.975836,-0.66405845,-1.1677233,0.9423027,1.6996337,8
-1.9743546,-0.04286994,-0.32225385,-0.42871872,0.30434355,0.8643558,0.9930479,0.8049494,-1.4277748,-1.0758091,0.37448657,-0.36141238,-0.28596154,-0.034605846,1.0416691,-0.25522605,14
-1.8421752,0.05464372,-0.54653645,-0.41402298,0.46620116,1.0530839,1.1633884,0.16377938,-1.1656629,-1.3905301,-0.39761513,-0.47714716,0.11539316,0.37147212,0.2438085,0.012410192,17
-2.3677735,-0.5155891,-1.8048228,0.6059784,0.6903365,2.1140385,-0.311768,0.7331764,0.09993173,-0.4564929,-2.15203,-0.2088458,-0.5667066,-0.9044957,0.26105073,-0.63356733,17
-1.9515119,-0.9864336,-1.2344503,0.77109426,-0.032629788,2.044353,0.6744201,1.0403602,-0.25048077,-0.16549808,-1.5150348,-0.19859469,-0.043003075,-0.83879703,-0.035142798,-0.264138,17
-1.4998504,-0.61209965,-1.3136038,0.12655069,0.5434135,1.0952802,-0.39318156,-0.00035206755,-0.12941237,-0.29911113,-2.0469472,-0.2864248,-0.9443787,0.13285162,0.3684142,-0.31169057,17
-2.8112323,0.30985183,-2.1940207,0.7126765,0.91839397,2.3601146,-0.54900974,0.7879615,0.13607015,-1.8128262,-2.1960704,-0.37260967,-0.7500305,-1.5591326,0.47514325,-0.18243553,17
-0.9962049,0.258623,0.12729971,1.3536131,1.4998988,0.29612726,-1.302441,-0.65655583,0.8536754,-0.44046405,-0.7003239,-0.6629904,-0.11430482,0.6235514,0.85436106,0.5051597,10
-0.9842387,0.106830746,-0.65351516,0.9671153,1.3755844,0.9072198,-1.2628218,-0.61293185,1.2120026,-0.12126424,-1.4226518,-1.0469905,-0.5729302,0.64953524,1.2350016,0.025718171,10
-0.83252317,0.0103958165,-0.05928915,1.5161824,2.1839252,0.44349223,-0.93379295,-1.1672937,1.0750216,-0.5367477,-1.2246197,-0.3780864,-0.15730509,0.81529474,0.9310395,0.6795181,10
-1.3734113,0.6157899,0.74255764,1.4634706,0.41789195,0.35467348,-0.94324464,-0.38952535,0.9401495,0.15343288,-0.36815438,-0.5889971,0.1882694,1.0258523,1.0906694,0.028247833,10
-1.4726448,0.26241094,0.6140973,1.1990665,0.9272081,0.4309334,-1.091656,-0.3553649,1.3171469,0.15862836,-0.6513853,-0.5360305,-0.10831396,0.8427877,1.1803845,0.39396635,10
-1.385131,0.03827858,-0.102797754,1.6139717,1.8378419,0.2808284,-1.6292884,-1.1315111,0.57941157,-0.7308328,-0.6296264,-0.39613542,-0.8411732,-0.10065244,0.5139599,0.3715742,10
-0.6369667,0.2347379,0.45890868,0.27120313,1.6023465,0.096681945,0.001526371,-0.62520623,0.12046651,-1.3962655,-0.5634128,-1.2106609,0.27053425,0.5636262,-0.21345891,0.88355666,3
-1.3416914,0.11804362,0.417089,0.7879752,1.267154,0.53363293,-1.0756236,-0.69813436,0.8318216,-0.19081494,-0.96358985,-0.5493217,-0.18604861,1.2429307,1.2865893,0.2081339,10
-1.0398751,0.02547544,0.08308931,1.5813168,1.625617,0.42722487,-1.3521163,-0.7623802,0.9683447,-0.25617936,-0.8197661,-0.48193336,-0.67779607,-0.42411292,0.71804875,0.09866036,10
-1.1571162,0.44979548,-0.15619177,1.3370392,0.53551716,0.6254524,-1.3297395,-0.28789234,1.1717962,0.15051354,-0.68936294,-0.98849547,-0.70638096,0.57508963,0.98277813,0.09121749,10
-1.4533747,-0.17939271,0.28168806,1.1708229,1.3473754,0.5380524,-1.4473175,-0.6196944,0.64745456,0.007105766,-0.9798815,-0.10925633,-0.9035136,0.0793687,1.0378364,0.06253191,10
-1.2053052,-0.042002864,-0.008612334,1.5372453,1.8006016,0.27765876,-0.8014585,-1.2990924,1.4847993,-0.23738965,-1.3422273,0.057130087,-0.6369793,0.80370045,0.93836015,0.21434568,10
-0.89364403,0.5843188,0.21877937,1.2671767,1.1439521,0.53199697,-0.9750207,-0.019152025,1.0219814,-0.46561867,-0.39110845,-0.3173717,-0.23385009,0.7830513,0.43452603,0.1880151,10
-1.1401117,-0.13335153,-0.12821627,1.8936069,1.0643189,-0.12202114,-1.1523702,-0.34414405,1.3948904,-0.6859419,-0.89100355,0.008881885,-0.117161214,0.22283545,1.1451287,0.24268466,10
-0.39259604,-0.19018047,0.017175373,1.327192,1.6336143,0.6232016,-0.3017432,-0.87659526,0.43065456,-0.28887132,-0.7592141,0.00024689903,0.26360816,1.4395318,1.6607926,0.46114975,10
-0.9670508,0.2643436,-0.042960078,1.4281495,1.6656107,-1.0370096,-0.76839143,0.043603774,-0.16687812,0.48049912,-1.128058,-1.2854985,0.37772152,0.051436692,0.6557752,-0.13506407,6
-1.4173266,-0.5984772,-1.2002226,1.4593796,1.3224715,0.5757682,-1.229619,-0.40891948,0.6613266,-0.49090272,-0.18260749,-0.7511135,0.6213934,0.9621123,1.1411448,1.5523404,10
-1.2574319,0.8350228,-0.3927078,1.319191,1.0524675,0.11937902,-1.808895,-0.63091296,1.1292392,-0.48570848,-1.7068266,-1.3499209,0.466464,0.19445945,1.2066207,1.2358013,6
-1.5635406,0.94683,-0.018170556,1.2351383,1.7854027,0.13799846,-1.8137552,-0.54222643,1.02326,-0.7972565,-1.541777,-1.1655256,0.6441179,0.09440215,1.2028269,1.1109976,10
-1.7924547,-0.62050825,-0.1949216,-0.2547733,1.004924,1.0261303,2.1946673,0.6345902,0.4136722,0.6415121,-1.0571864,-0.53877544,-0.3017113,-0.11604171,3.1740193,-1.2708161,6
-1.815056,-0.52978003,0.0011031422,-0.2940797,1.2078865,0.7944294,2.4093351,0.32097623,-0.14094637,0.6481767,-0.90398425,-0.38727185,-0.49926308,-0.23317824,3.1625316,-1.147555,6
-1.1983222,-0.35393715,0.0838391,0.04894508,0.88397497,0.6597017,1.9565748,0.64944667,0.06054923,0.5569789,-0.75676054,-0.45430347,-0.14368694,-0.5248937,2.7138524,-0.98479605,6
-1.5811068,-0.5235274,0.06071725,-0.19865485,0.89687765,0.85835254,1.5208622,0.89921695,0.5743714,0.6875738,-1.0213078,-0.9547587,-0.37659928,-0.35820153,2.7274673,-1.5604868,6
-2.1344583,-1.2505289,-0.2425033,0.0044315793,0.08051756,1.780813,0.72684145,-0.09524863,-0.15491351,-0.88084483,-2.2080188,-1.3904672,0.7261182,0.372379,-0.5193051,1.5014999,17
-1.7184227,-0.791,-0.34281203,-0.1501067,-0.031858653,1.6008453,0.96634537,-0.08142025,-0.75702816,-0.8023204,-2.0530086,-1.3436375,0.8949476,0.41642174,0.03203868,1.1717075,17
-1.9765804,-1.2989999,-0.39610985,0.096649215,0.22090949,1.9061615,0.7879078,-0.4278745,-0.42153773,-0.9128343,-2.6261373,-1.6488445,0.79616475,0.45825917,-0.3421565,1.444489,17
-2.2810645,-1.069642,-0.36401907,-0.14484838,-0.15670858,1.3805083,0.7176531,-0.0144526595,0.7003204,-1.3590788,-1.4653375,-0.8329272,0.271599,-0.53705305,-0.3586982,2.056466,17
-1.9308343,-1.48191,-0.03233258,0.12898363,-0.49588978,1.4015882,0.49347672,0.34882167,-0.32462397,-0.7512778,-2.1096323,-1.6503253,0.36781755,-0.2329851,-0.22980937,1.5390838,17
-2.0344775,-0.46636227,-0.17438988,-0.10688208,0.12748694,1.8052305,0.5732067,0.47347218,-0.8103755,-0.59719425,-1.3115956,-0.67735356,0.97450376,0.620279,-0.15399747,1.0772171,17
-1.1530395,1.0487456,0.76342577,2.1934528,0.5546457,-0.59750134,2.2043781,-0.36290798,0.3270528,0.69324136,0.8322547,-1.3916892,0.26924562,0.6896424,0.50845253,0.4452189,14
-0.95651704,0.7740831,0.62411624,1.7574813,0.31618425,-0.36906385,1.9833945,-0.09878804,0.343446,0.59742534,0.6647379,-1.001457,0.034652833,0.20168695,0.17108528,0.566828,0
-1.1712687,-0.29655224,-0.6997365,1.7144796,0.9820569,0.32422048,-0.13862778,-0.5307983,1.7186165,0.16199967,-0.4772104,-0.28712755,0.23363926,1.0430799,1.3184171,-0.8639428,10
-1.2459953,-0.7048354,-0.5508257,1.8381407,0.9150269,0.18736896,-0.36470535,-0.40294072,1.6399809,-0.13684814,-0.5695655,0.07895447,0.36546904,0.720871,1.5954552,-0.358124,10
-1.0708818,-0.29651004,-0.15655659,1.6750839,0.8352867,0.29164755,-0.4103911,-0.3855773,1.6633574,0.005879332,-0.5801489,-0.29488674,0.029887645,0.9358232,1.5483476,-0.4386913,10
-1.1401743,-0.8755398,-0.54330766,1.4750713,1.3190036,0.43663377,-0.08151466,-0.579773,1.344992,0.45212087,-0.38739672,-0.27271008,-0.03973052,0.9719986,1.4890405,-0.88015014,10
-1.4176052,0.20398644,-0.18393193,1.2393634,1.0226543,0.0465857,-0.7865871,-0.45841566,1.5716957,-0.09294449,-0.57399243,-0.6517914,-0.021284454,0.92203796,1.3933871,-0.3339334,10
-1.5769649,-0.6765843,-0.71783644,2.0715122,0.81368023,0.17746213,-0.34831566,-0.2577074,1.4825047,0.050914306,-0.6027279,0.23793809,0.7198954,1.0803823,1.0594194,-0.5999803,10
-0.6731108,-0.54682285,-0.6629112,1.8321787,0.87970686,0.5249586,-0.21953784,-0.51394606,1.5397482,-0.11248185,-0.06881718,-0.42809573,-0.08193462,0.55033034,1.4217956,-0.4827052,10
-1.2396172,-0.51381,-0.90217876,1.4961152,0.90671676,1.0302441,-0.0900283,-0.14808625,1.0921687,0.6515396,-0.4146999,-0.30732575,-0.10418468,1.569443,1.4509176,-1.1391857,10
-1.2482238,-0.069240205,-0.11779509,0.7078357,2.265096,-0.48656204,1.8674853,1.2353913,0.47132427,-0.31156605,-1.6876165,0.74845785,-1.2084991,-0.17575437,0.35605925,1.1746302,8
-1.1549243,-0.0598922,0.6597901,1.1325246,1.7110037,0.019210853,1.9302459,1.0326202,0.26989254,-0.27853662,-1.824704,1.1876309,-1.0013202,-0.30541474,0.31438187,0.97452635,8
-1.5150883,-0.23665966,-0.18288605,0.56834066,2.2359498,0.19988035,2.1727326,0.7248823,0.40882754,-0.28557298,-0.2960956,0.92346823,-1.1583568,-0.26858568,0.54501355,1.2134501,8
-1.4222218,-0.4223536,0.099517174,0.72331166,2.259134,-0.75536674,1.7336062,1.5256845,0.31197166,-0.5654605,-2.1120093,0.87908226,-1.1743622,-0.14614965,0.8811493,1.4323194,8
-1.4595459,0.20109317,-0.4141308,0.48623663,1.5911597,-0.037379716,1.1932993,1.008314,0.41637522,-0.5858434,-1.0777668,0.90403765,-0.9204317,-0.17696464,-0.081597604,0.7028721,8
-2.5754817,-1.4027902,-0.2831393,0.7822676,-1.0276994,1.1423239,0.038499508,1.3324238,-0.71675056,-2.3756635,-1.6147896,-0.96989095,-0.18231156,0.112623565,0.9242089,2.470957,17
-2.3310282,-1.2001369,-0.59615344,0.5888327,-0.87175214,0.9018714,0.29405567,1.3253996,-0.6396017,-1.9197986,-1.2830864,-0.93682176,-0.1405933,-0.37714538,0.22420296,2.0463352,17
-2.5428097,-1.0433602,-0.43415636,0.16167161,-0.94267315,0.92807525,0.04835429,0.8975809,-0.47253376,-2.1393976,-1.2763517,-1.3566968,0.00786864,0.74662614,0.98978627,2.5551088,17
-2.4917924,-1.0235965,0.33418834,-0.5892364,-0.17670286,1.2411644,1.1819857,1.5150272,0.6304027,0.5238218,-1.1295899,-1.7940081,-1.4479656,-0.9090622,0.40827656,-0.14461559,6
-2.213826,-0.7853542,0.80733144,-0.3967537,-0.50375485,1.0174681,0.8594893,0.9522433,0.095655404,-0.14896886,-0.9007834,-1.3911262,-1.5701519,-0.64088255,0.03642945,0.75422895,6
-2.1179276,-0.43770748,0.12085681,-0.80549055,0.710081,1.1945171,1.5995255,1.6290382,0.122133836,0.695514,-1.0488824,-1.71347,-1.0615941,-1.0114933,0.90941954,-0.9918397,6
-1.5745225,0.3360569,1.3486377,1.1729035,0.92357296,0.8944972,0.81413776,0.678184,0.35208273,-0.0042373175,0.74985254,-0.5603171,0.25608087,0.6254491,-0.01963582,2.0914931,0
-1.0043584,0.24232215,1.0571537,1.1088268,0.6503934,0.7831069,0.7120381,0.81264466,0.219428,-0.121736266,0.60709673,-0.45595703,0.1913913,0.65186065,-0.07069547,1.844079,0
-0.23580131,2.47377,-0.31394246,2.349902,3.24351,0.7691416,0.19329368,-0.2195589,0.7044552,-0.79718363,-0.2814455,-1.514876,0.698167,-0.15098964,1.2180938,2.2035608,5
-0.2614397,1.7485831,-0.74078465,2.5608437,3.7811136,0.67988706,0.23376945,-0.54873186,0.6566594,-0.91852486,-0.0067218877,-1.0424026,0.6461724,0.6604008,2.0341916,2.026853,10
-0.23595065,1.6226457,0.15181825,1.8342006,2.4862454,0.8078115,-0.04846862,0.32307935,-0.08186212,-0.79134744,-0.028647743,-1.7542433,-0.28527063,-0.91004515,0.33701342,0.6841336,10
-0.6143804,2.8358073,0.02859083,2.5273523,2.4669826,0.047613952,0.57642126,-0.18060026,1.2178047,-0.65515834,-0.87520945,-1.2979565,1.0073835,-0.6183691,0.8498068,2.9257228,5
-0.9027399,2.88968,-0.37383565,2.3817778,2.8554454,-0.048174955,0.31847125,-0.264874,1.051651,-0.66371953,-0.5179255,-1.3565853,0.8782119,-0.3122472,0.9633308,2.8230088,5
-1.0784903,-0.5724912,0.35768837,2.1355443,-0.048941784,1.0088432,-0.6552773,-0.12771799,0.68131363,-0.41099787,-0.42245212,0.14676312,-0.27755946,1.1170596,-0.016515756,-0.4838656,10
-0.95755213,-0.4273606,0.5998431,1.9283358,-0.3065017,0.88572395,-0.651155,-0.43127102,0.50646174,-0.76004237,-0.22592522,0.01783304,-0.24724127,0.80205464,0.009416246,-0.2140082,10
-0.8689358,-0.215366,-0.05403604,1.8353976,0.3268535,0.82779765,-0.8460127,0.49127293,1.0235244,0.06364174,-0.5379369,-0.10377114,-0.25308022,0.8458174,0.3867567,-0.21685994,10
-3.7352831,-0.5551814,-0.7317984,0.6273372,1.9651067,-0.23512824,1.5261422,1.4171989,-0.95158833,-0.30379862,-0.56471854,0.36615673,2.2607524,0.13471511,-0.4265769,1.381635,3
-3.9615319,0.3959141,-1.4359455,0.99550176,1.6316856,-0.4409386,0.7310795,2.0633616,-1.2955365,0.000800171,-0.7477498,-0.3367676,2.4816663,0.08664149,-0.7605537,1.3894646,12
-2.6742961,-1.241866,0.205418,0.65089786,1.9952297,0.5302239,1.9008301,0.74887985,-0.7602702,-0.17916173,-0.35493058,0.3717892,1.5149933,-0.4052409,-0.35126913,0.89017606,6
-2.4709334,0.4094499,-0.62739986,1.7926576,-1.1262755,-1.9034548,0.23369269,0.4610388,-2.5732698,-1.6600709,-1.6123123,-1.0727708,-0.29232076,0.93325555,2.2488008,0.9832276,17
-2.7928581,0.64838433,-0.3074028,1.7268919,-0.7117035,-2.057929,0.29238826,0.44832262,-3.0102043,-1.956005,-1.8299611,-1.0500269,-0.29246604,1.527129,2.473612,0.9086562,3
-1.4157833,1.0166683,-0.93962634,2.1101832,0.27707383,0.54535043,0.60549307,-0.4860322,1.6681687,1.353953,0.71576065,-1.3490101,-1.1976024,0.60839653,-0.08575117,1.3028761,0
-1.6108584,1.0325608,-1.1134087,2.620644,0.24036965,0.39237222,0.39897448,-0.45211774,1.584714,1.4304273,0.4999273,-1.6834806,-0.8644796,0.43384442,-0.25370586,1.5317583,0
-1.6976036,1.4717026,-1.5756782,1.6309454,0.98069465,1.3431664,0.5039148,-0.7425603,1.9754362,1.3059907,0.9214,-1.5115855,-1.838659,0.88666904,0.68001103,1.2277516,10
-1.2401525,0.9900972,-0.51830775,2.1656098,0.11913409,-0.08539926,1.0827827,0.0586348,1.4302973,1.0561314,0.64302146,-1.2212071,-0.78919053,0.5680954,-0.23277028,1.1332762,0
-1.592825,0.94641864,-0.9452495,2.5219576,0.1902264,0.3125875,-0.21741362,-0.7205135,1.6537329,1.4611291,0.061932217,-1.3072325,-0.6907103,0.2152109,-0.2165071,1.4877529,0
-1.974886,1.3727441,-1.2039719,2.2294893,0.367322,0.47133303,0.4949472,-0.12190123,1.5984229,1.3568478,0.76297545,-1.5882584,-1.2833935,0.79980826,-0.27504742,1.8549303,15
-1.1608313,1.0179834,-0.6273956,2.165151,0.1865985,-0.4579666,1.224325,-0.23084265,1.5030566,1.3437215,0.09130548,-1.187418,-0.7759393,0.3383163,-0.19080625,1.194932,0
-0.6787723,0.116452396,-0.15113027,1.7596536,0.061292745,0.5266257,-1.0385424,-0.7774788,1.3664211,-0.0019516618,-0.67959076,-1.0553199,-0.48486468,-0.12031601,0.4039473,0.62049985,10
-0.71141714,-0.14941919,-0.19706932,2.2245936,-0.25529423,0.87662077,-1.080137,-0.91647446,0.97472864,0.16637829,-0.98202294,-1.4605272,0.7261297,0.016873786,1.0881242,0.76336676,10
-0.7540442,-0.051970743,0.39067143,1.4408607,-0.16625886,0.5132,-0.6854348,-1.4860927,0.9595142,-0.18198891,-0.9744857,-1.336554,-1.3325446,-0.6512981,0.24326268,0.9281396,5
-1.2532074,0.44380546,-0.44174573,1.9836191,0.2623855,0.917389,-1.1959817,-0.8476587,1.4157292,1.2705215,-0.6934853,-1.1958517,-0.4296224,0.20514113,0.57813185,1.1314237,10
-1.5292153,-0.3560198,0.22577666,1.2732925,-0.058859136,0.08370749,-0.9849354,-0.4593666,1.6494099,-0.35045004,0.28554803,-0.98440254,-0.34419104,0.2204323,0.78149885,0.4211233,10
-0.805268,-0.15136367,-0.20605196,2.114887,0.00445729,0.74800086,-1.3080028,-0.78699344,1.028528,0.3043459,-1.0906587,-1.7236904,0.5040059,-0.07688292,0.9516243,0.80751395,10
-1.248825,0.31297177,-0.34406644,2.0917313,0.23851947,0.7133832,-1.1897008,-1.1357657,1.77178,0.9459826,-0.8427663,-1.4906726,-0.5699276,0.013411942,0.5691911,1.2605841,10
-0.3476394,0.71263933,-0.29176298,1.9264328,1.0662146,0.8572381,-0.97477,0.10490537,0.83341897,-0.35527754,-0.39608794,-0.76904947,-0.14639217,-0.33246303,0.4100946,-0.2076723,10
-0.82524896,0.11560848,-0.16940513,1.9897556,0.27218783,0.33569956,-0.64087677,-0.0058671283,1.0903995,-0.48225814,-0.95479745,0.2666798,0.28474474,0.821398,1.0634354,-0.18790121,10
-1.2271819,0.6341874,-0.34708667,1.5181544,0.90120745,-0.15070327,2.0350099,0.5788393,-1.1114073,0.031902492,-0.5933906,1.0071545,-1.188069,-0.3424547,1.9776878,-0.74489576,6
-1.2256883,0.51705533,-0.3848187,1.5296825,0.7287005,-0.019237561,2.277175,0.7551529,-0.61833674,-0.44761333,-0.27948025,1.1397207,-1.0869157,0.046947777,1.4402069,-0.84554017,6
-1.010863,0.57986164,-0.021390714,0.6929972,-0.15615816,0.16255446,1.5147223,0.45487168,-0.5488989,-0.047608946,-0.48996496,0.4279166,-0.60461277,-0.53984517,1.7112663,-0.4590643,6
-1.0856622,0.10653208,-0.26750752,0.57208353,0.8764531,-0.08795794,1.1096513,0.13543248,-0.96485513,-0.018354286,-0.38524577,0.6452957,-1.0104059,-1.2913513,1.3528986,0.023026612,6
-1.4391053,0.59294677,-0.10146798,1.9575226,1.2840993,-0.4392965,2.143337,0.99246377,-0.9982128,-0.14609386,-0.52063936,1.0869346,-1.3972468,-0.21955335,1.5704149,-1.1042559,6
-1.1317483,0.43409494,-0.10425529,1.2741479,0.5824053,0.21388245,2.0988467,0.7470259,-0.6842886,-0.08668516,-0.3814357,0.8877277,-1.2248331,-0.004698991,1.91754,-0.73690826,6
-1.481841,0.92781514,-0.33776864,2.0916917,1.0709198,-0.2091844,2.4360096,0.67541903,-1.2196056,-0.31611696,-0.46484816,1.2017292,-1.2308127,-0.04436387,1.8409886,-1.1555026,6
-1.244273,0.8247599,-0.25597307,1.7070204,0.5328405,0.0012684618,2.050834,0.83696216,-0.83541733,-0.21842282,-0.32123664,0.7440509,-1.2087058,-0.1429156,1.853453,-1.1935463,6
-1.4785534,0.8234317,-0.44673827,2.0546205,0.9424093,-0.29738477,2.3650413,0.5150561,-1.0279149,-0.2622816,-0.49772128,1.397545,-1.2002213,-0.06926889,1.8769872,-1.0483155,6
-1.1041844,0.99985975,0.0069631212,2.104827,1.2894,-0.2208909,2.514378,0.84010464,-1.3194281,-0.17687754,-0.5169861,0.66420496,-1.2837355,-0.116484955,1.8254218,-1.2962102,9
-0.73511803,0.5562073,0.84633726,1.0978943,1.0425742,-0.35680574,0.6283751,-0.86964834,0.6425783,-0.98576313,-0.6788592,-0.90957797,1.0667887,0.61312425,-0.33961767,1.8594213,0
-0.9710528,0.6294642,0.8139436,1.4913459,-0.08654193,-0.21648487,0.8398248,-0.70595604,0.47638026,-0.74905425,-0.9700219,-0.12256157,1.0351396,0.4425015,-0.09207699,1.9665494,0
-1.0235193,0.80558276,0.8678799,1.2830795,0.5178015,-0.28274012,1.0576029,-0.8703011,0.66449034,-0.3878864,-0.8495264,-0.6105561,1.3874784,0.5642444,0.117020115,2.0275593,0
-0.80247384,0.5447541,0.58116347,1.1918685,0.24165723,-0.14506744,1.4928946,0.06719143,1.0117396,-1.1328686,-0.92108685,-0.2129302,-0.8993157,-1.4218847,1.8442363,-0.7541713,6
-0.8227473,0.72608083,0.46571538,0.8811949,0.043889917,-0.18915662,1.4859275,0.14521502,0.705591,-0.9336763,-0.766819,-0.18928474,-0.82579553,-1.1177253,1.7641902,-0.52012146,6
-1.7263131,0.6170189,0.612741,2.0022938,0.29229495,0.81691414,-1.3326265,-0.78418684,0.8342802,0.13855244,-0.23354402,-0.8913595,0.027752737,0.542816,1.161549,-0.15403433,10
-1.4506453,0.7334156,0.4313794,2.075086,0.155026,0.6683276,-1.1860396,-1.0695565,0.80966675,-0.08736085,-0.27132943,-0.9789906,0.02170487,0.6239618,0.9515392,-0.27313697,10
-1.5515354,0.69673485,0.56370145,2.1043239,0.15069039,0.82753044,-1.1742139,-1.1119483,0.7355215,0.01776816,-0.23132114,-0.83130455,0.10971591,0.50949544,0.97265756,-0.14471062,10
-1.679301,0.55661637,0.71331465,1.5098377,0.59056383,0.63841724,-1.2094766,-0.8020253,0.9102512,-0.019604959,-0.24916503,-0.69585806,-0.09009146,0.7442232,1.0847149,-0.13706239,10
-1.618479,0.5203593,0.6116215,2.1454723,0.19983898,0.7507165,-1.2919524,-0.96849465,0.8169572,0.19714989,-0.44877028,-0.8669553,-0.026162166,0.5499101,1.1685189,-0.20094545,10
-1.485234,0.56415313,0.05106954,1.885595,0.43983454,1.383052,-1.2496884,0.13775937,1.1691395,0.7035872,-0.26435903,-0.38613293,-0.29573134,0.82187074,1.5725416,0.5234762,10
-1.5361562,0.63484037,0.5566682,2.2211714,0.1277877,1.0130199,-1.3533595,-0.7686603,0.8630458,0.065034576,-0.45183536,-0.9732203,-0.059480425,0.47045457,1.155541,-0.18331355,10
-1.4872568,0.70991707,0.560365,1.9887309,0.43933362,0.79964477,-1.2265084,-1.0013796,0.80729216,0.03458434,-0.2895708,-0.86400276,0.042426914,0.57944816,0.91802245,-0.13315982,10
-1.6183549,0.5894019,0.83196396,1.8198507,0.28318396,0.7737363,-1.2430731,-0.9649072,0.91931546,-0.118585326,-0.4783327,-1.1515795,0.19613573,0.3628061,1.174611,-0.4071501,10
-1.663756,0.33305728,0.87371355,2.0291402,0.07471929,0.65625703,-1.0643438,-0.85305786,0.93809086,0.081346914,-0.16496679,-0.7056975,0.11888144,0.41382205,0.7581024,-0.24016905,10
-1.4206134,-1.7555493,-2.5496354,1.3458028,0.32057506,-0.25777608,1.7823858,0.9339294,-0.4657633,-0.8774367,-2.2191854,-0.42378622,0.6274033,0.7020695,2.7949643,-0.8321468,16
-1.1555943,-1.9777671,-2.4442558,1.204709,0.7664486,0.26717433,1.9308809,1.1292714,-0.47988975,-1.3223795,-1.9005269,-0.57941157,0.26114824,0.6504417,2.3962548,-0.95909154,16
-1.6621306,0.00058831344,-1.4702352,-0.018307924,1.0297418,0.24924053,0.15021145,0.28612542,-0.7543531,-0.045218356,-1.185838,-0.022343794,-1.4315226,-0.1859591,-0.023292864,0.27221915,17
-1.5687027,-0.2952086,-1.5050172,0.16723065,0.814096,0.70321614,0.43058422,0.17273091,-1.0389547,-0.098021,-1.4416659,-0.40598688,-1.2482326,0.21560964,-0.28731766,0.0785679,17
-1.4446361,0.10738785,-1.3887601,0.11104326,0.5086571,-0.02567066,0.6588684,-0.7173894,-1.3477165,0.36545545,-1.2033949,0.22184263,-0.7291049,0.28664875,0.1614995,0.738944,17
-1.5485636,-0.20817463,-1.2128395,0.22869396,0.71377,0.5205954,0.34845468,0.33555138,-0.957721,-0.09763168,-1.5653696,0.20327187,-1.0668259,-0.0009578531,-0.27449152,0.30432275,17
-1.0093758,0.2411425,-1.4897028,0.34206757,0.22656998,0.02771411,0.55502015,0.24620749,-1.4020191,-0.054958776,-1.7386996,-0.025436008,-0.6947868,-0.43548658,0.6476968,0.48349774,17
-1.7641271,-0.56480604,-1.4232333,0.022479694,0.69325805,0.40272975,0.2647669,0.31529644,-0.85058975,0.054018106,-1.7053505,-0.22106692,-1.1816566,0.28749532,-0.0922843,0.14823598,17
-0.60232586,0.5019575,-1.448626,0.3649253,0.57216567,0.46445435,0.52014714,0.60230327,-0.77009296,-0.6887636,-0.14527334,-1.1332679,-1.1560909,-0.46662927,0.12363045,0.18692754,17
-1.6799713,-0.4587647,-1.3672166,-0.027440246,0.88583213,0.60904795,0.070170924,0.30047944,-0.7693915,-0.058276653,-1.8285451,-0.26414144,-1.4445403,0.11530137,0.033153553,0.30726293,17
-2.0577374,-0.34758404,-1.8495003,0.19129817,0.6847232,0.035217825,0.32801378,0.04153311,-0.57299554,0.0030506246,-1.4746903,-0.34769762,-1.2841785,-1.7009326,0.038568936,0.6093374,17
-2.042312,-0.43155804,-1.4388869,0.030117378,0.6355952,0.44367257,0.004627092,0.81939185,-0.76953304,-0.05319056,-1.7132419,-0.35144427,-1.4071665,0.18777397,-0.15803854,0.25334525,17
-1.6582772,0.33488807,0.17857863,0.39632848,1.7419494,0.42929035,0.44246724,0.374407,0.66146594,-0.27610317,-0.5524035,0.61905205,-0.82861716,-0.43097776,-0.21661977,0.21649788,8
-1.931975,-0.2393698,-1.611087,0.13655718,0.29205948,0.73545015,0.18945222,0.730196,-0.53901076,0.13313882,-1.2378972,-0.43673337,-1.2283405,0.51228553,-0.39711866,0.11391912,17
-1.8286434,-0.5524514,-1.5163591,-0.111011185,0.5739555,0.5822081,-0.2669483,-0.06359505,-0.30346337,-0.3253564,-2.013113,-0.31560653,-1.2288477,-0.21503359,0.58122724,-0.16506112,17
-0.7114333,0.78327495,-0.8752025,1.6888213,0.05773022,0.9153958,-0.71354115,0.063042104,-0.8062571,0.33441305,-0.5487747,-1.4450092,0.69659084,1.5135415,2.3551064,-0.02348792,10
-0.6627644,0.63294786,-0.87948257,1.4566722,0.38654158,0.679566,-0.8138251,-0.17358175,-0.69213957,0.1718537,-0.7075209,-1.368967,0.8847149,1.2804675,2.2267015,0.03728119,10
-2.0753849,0.38354474,-0.70420647,1.6247852,1.1123366,-0.9550851,-0.519701,-0.11012394,-0.16640909,1.1626159,-0.4684579,-1.7162485,1.0114696,-0.0554993,0.51821476,-0.80289143,15
-1.6829512,0.012110065,-0.76080126,1.4543258,1.1508209,-0.8273164,-0.6696994,-0.18416119,-0.17211568,1.1247898,-0.5887803,-1.7175046,0.8347339,0.2035381,0.77533466,-0.56646675,15
-1.5593163,0.5495877,-0.32034388,1.4175403,1.4827898,-0.89356554,-0.44463775,0.28922316,-0.16664265,1.2945288,-0.41794348,-1.4566967,0.561808,0.19848146,0.6682773,-0.46868956,15
-0.76232,0.5185108,-0.55907124,1.0386013,0.093653604,0.04001497,1.9295456,0.60341156,0.20906417,-0.5213237,-0.116103426,0.3192855,-1.0972131,0.2793847,2.2021742,-0.6685594,6
-0.95484674,1.0033189,-0.47443718,1.4484348,-0.004430494,0.67381406,2.0099452,0.83034,0.030320477,-0.7982867,-0.12437565,0.1633415,-1.8167112,0.07482367,1.716928,-1.0477717,6
-0.8523234,0.62380713,-0.2544184,1.3257353,0.12591195,0.4238674,1.8198237,0.8399077,-0.46165913,-0.8074719,-0.26925784,0.5465131,-1.2707969,0.18592973,2.1029725,-0.8393438,6
-1.0991231,0.42752814,-0.22430435,0.9981152,-0.34967047,0.19946823,1.5038462,0.39231852,0.22116849,-0.34638783,-0.36267713,0.29189408,-0.7874907,-0.17382506,2.0688374,-1.032835,6
-1.0874356,0.65160674,0.1554505,1.0935675,-0.18504266,-0.15926965,1.4057486,0.42436177,0.22675653,-0.3197512,-0.09853308,-0.06325733,-1.1864544,-0.7621351,1.9071647,-0.6451429,6
-0.9845783,0.5791123,-0.61012256,1.1436645,0.36546418,0.6677937,2.292609,0.37339762,-0.018605985,-1.2904861,-0.18259819,0.5228681,-0.9589395,0.52643424,2.9172912,-0.75360984,6
-0.67334336,0.45478067,0.12693766,1.2771983,-0.49284247,0.4058475,2.022126,0.6772423,0.2815117,-0.5926212,-0.7302745,0.44338393,-1.0683137,0.07095667,1.6532269,-0.57639474,6
0.01303145,1.4357514,-0.47500193,1.2266161,0.34812966,0.17054015,1.4162906,0.7793437,0.30097812,-0.9174831,-0.47698918,-0.16922548,-1.4741914,0.25525635,1.7590004,-0.39423233,6
-1.1543267,1.1703454,0.082774535,0.596029,0.05750457,0.35206136,1.446311,0.13246994,0.5880499,0.094204634,-0.1793886,-0.05853785,-0.22595757,-0.77240187,1.6870524,-0.26947638,6
-1.3055022,0.5853227,0.38314083,1.1916991,-0.17477557,0.23087992,1.4718095,0.5359639,-0.13236578,-0.15557198,-0.15826614,0.14366665,-1.1301044,-0.43616602,1.9577974,-1.1130804,6
-0.9277099,-0.34283164,-0.80024743,0.719119,0.8325475,-0.53160584,2.4864318,-0.20108005,0.23237628,-1.1750056,0.19861583,-0.0369154,-0.5043405,1.3220989,3.1985285,-0.5186472,6
-0.92833245,0.85732776,0.327737,0.8528943,-0.5675761,-0.17570695,1.6865307,0.32867098,-0.14433901,-0.15929535,-0.3725547,-0.02014278,-0.24833103,-0.2049084,1.9121953,-0.12858814,6
-0.94854426,0.1350738,-0.31522483,0.74467295,-0.53250235,-0.6546875,1.6665381,1.0658425,0.3558706,0.38309276,-0.38778934,-0.25166008,-1.0145708,-0.4108525,1.9072227,-0.028304609,6
-1.770562,0.22577673,0.90696096,0.94755214,1.414682,0.15484895,-1.4158133,-0.53478724,1.0708336,-0.26093364,-0.46492717,-1.3066908,-0.41071984,1.3105367,1.706373,0.5862229,10
-1.6496167,0.011346119,0.8817697,1.1390324,1.0289748,0.07677266,-1.4305106,-0.6163111,0.87589186,-0.27849516,-0.34879503,-1.2339686,-0.4042349,1.4661311,1.6321713,0.8030633,10
-1.2706717,-0.873853,-1.1044551,0.3457062,0.31659627,0.7359705,-0.12709798,0.38569513,-0.5472147,-0.3383245,-2.1990883,-0.49339426,-1.0743182,0.6180161,0.09563466,-0.1997219,17
-0.979276,-1.6439813,-0.6126573,0.853184,0.22408755,0.5132877,-0.082234055,0.35428077,-0.86157256,-0.81858975,-0.4758022,-0.79967886,-0.7281934,0.61951447,-0.12686087,-0.4159054,17
-1.2302669,-0.41515523,-1.1437927,0.29016313,0.3642821,0.7083844,0.26920235,0.2077092,-0.98515147,-0.26078826,-1.7066253,0.21031928,-1.0660138,0.41667324,0.23241265,0.10020839,17
-0.8982705,0.2188409,-1.1746161,0.13494074,0.029443774,0.8705285,0.6506622,0.4230912,-0.61569405,-0.055879667,-2.6096578,-0.8253335,-0.37776038,0.8230544,0.18594046,0.08186243,17
-1.9480591,-0.68749785,-1.432036,-0.05375197,0.4366362,0.85668373,-0.504749,0.102665834,-0.15541072,-0.32592252,-2.246252,-0.6585586,-1.2179576,0.27268437,0.46751842,-0.37492716,17
-0.13231479,0.5213492,0.27184546,1.6995541,0.2225347,0.011651145,1.6338032,0.015840076,-0.47643694,0.6493704,0.27913868,-1.0840075,-0.10878407,0.8778196,0.76321346,0.82024866,0
-1.1110619,0.5937524,-0.1256125,1.6046056,-0.808577,-0.03643726,1.6464304,-0.059363734,-0.50981706,0.9106842,0.3752394,-0.6347967,0.016619591,0.4437061,0.53503263,0.92589885,0
-0.42969385,0.33227804,0.3765729,1.7695202,0.21108437,-0.122656256,1.653048,-0.098425,-0.29795378,0.5247534,0.3822168,-0.8795827,0.037450552,0.6246758,0.4478292,0.8746385,0
-0.54293644,-0.234776,0.18635511,1.7372141,0.058208745,0.19814733,1.683243,0.3354354,0.1614471,0.8514626,0.17911994,-0.54527634,0.07848704,0.59792125,0.47708243,0.848606,0
-0.18389212,0.6712991,0.54285806,1.8821702,0.40923506,-0.13426612,1.7787273,-0.4231471,0.051760897,0.12540632,0.17088127,-1.1712104,0.5038447,0.50789833,0.21703474,0.5624998,0
-0.04699071,0.46412918,0.6660678,1.4915944,0.23243968,0.16334747,1.3524365,0.5649314,-0.23778519,0.5875029,-0.07298659,-1.248794,-0.006277749,1.1863607,0.7475234,0.7553543,0
